{"ip":0,"fr":60,"v":"5.1.20","assets":[],"layers":[{"ty":4,"nm":"Plastify","ip":0,"st":0,"ind":32,"hix":1,"ks":{"o":{"a":0,"k":100},"or":{"a":0,"k":[0,0,0]},"a":{"a":0,"k":[1033.5,344.5,0]},"p":{"s":true,"x":{"a":0,"k":273.28954924014283},"y":{"a":0,"k":351.70700060819627}},"rx":{"a":0,"k":0},"ry":{"a":0,"k":0},"rz":{"a":0,"k":0},"s":{"a":0,"k":[4,4]}},"shapes":[{"ty":"gr","nm":"Plastify shape group","it":[{"ty":"sh","ks":{"a":0,"k":{"c":true,"v":[[256,1283.75],[246.76,1265],[202.24,1265],[193,1283.75],[193,1321.25],[202.24,1340],[246.76,1340],[256,1321.25]],"i":[[0,0],[5.100000000000023,0],[0,0],[0,-10.349999999999909],[0,0],[-5.100000000000023,0],[0,0],[0,10.349999999999909]],"o":[[0,-10.349999999999909],[0,0],[-5.100000000000023,0],[0,0],[0,10.349999999999909],[0,0],[5.100000000000023,0],[0,0]]}}},{"ty":"st","o":{"a":0,"k":0},"w":{"a":0,"k":0},"c":{"a":0,"k":[0,0,0,0]},"lc":3,"lj":1,"ml":1},{"ty":"fl","o":{"a":0,"k":100},"r":1,"c":{"a":0,"k":[1,0.38823529411764707,0,1]}},{"ty":"tr","o":{"a":0,"k":100},"a":{"a":0,"k":[0,0]},"s":{"a":0,"k":[108.2,53.300000000000004]},"p":{"a":0,"k":[-131.395,-609.832]},"r":{"a":0,"k":0}}]},{"ty":"gr","nm":"Plastify shape group","it":[{"ty":"sh","ks":{"a":0,"k":{"c":true,"v":[[256,1283.75],[246.298,1265],[202.702,1265],[193,1283.75],[193,1321.25],[202.702,1340],[246.298,1340],[256,1321.25]],"i":[[0,0],[5.353999999999985,0],[0,0],[0,-10.349999999999909],[0,0],[-5.353999999999985,0],[0,0],[0,10.349999999999909]],"o":[[0,-10.349999999999909],[0,0],[-5.353999999999985,0],[0,0],[0,10.349999999999909],[0,0],[5.353999999999985,0],[0,0]]}}},{"ty":"st","o":{"a":0,"k":100},"c":{"a":0,"k":[1,1,1,1]},"lc":3,"lj":1,"ml":1,"w":{"a":0,"k":9.67}},{"ty":"fl","o":{"a":0,"k":100},"r":1,"c":{"a":0,"k":[1,0.38823529411764707,0,1]}},{"ty":"tr","o":{"a":0,"k":100},"a":{"a":0,"k":[0,0]},"s":{"a":0,"k":[216.4,112.00000000000001]},"p":{"a":0,"k":[-374.349,-1408.465]},"r":{"a":0,"k":0}}]},{"ty":"gr","nm":"Plastify shape group","it":[{"ty":"sh","ks":{"a":0,"k":{"c":true,"v":[[673,1212.5],[660.612,1200],[131.388,1200],[119,1212.5],[119,1237.5],[131.388,1250],[660.612,1250],[673,1237.5]],"i":[[0,0],[6.836999999999989,0],[0,0],[0,-6.900000000000091],[0,0],[-6.837000000000003,0],[0,0],[0,6.900000000000091]],"o":[[0,-6.900000000000091],[0,0],[-6.837000000000003,0],[0,0],[0,6.900000000000091],[0,0],[6.836999999999989,0],[0,0]]}}},{"ty":"st","o":{"a":0,"k":0},"w":{"a":0,"k":0},"c":{"a":0,"k":[0,0,0,0]},"lc":3,"lj":1,"ml":1},{"ty":"fl","o":{"a":0,"k":100},"r":1,"c":{"a":0,"k":[1,0.6901960784313725,0.49411764705882355,1]}},{"ty":"tr","o":{"a":0,"k":100},"a":{"a":0,"k":[0,0]},"s":{"a":0,"k":[100.89999999999999,100]},"p":{"a":0,"k":[-120.074,-1177.165]},"r":{"a":0,"k":0}}]},{"ty":"gr","nm":"Plastify shape group","it":[{"ty":"sh","ks":{"a":0,"k":{"c":false,"v":[[331,1437],[452,1438],[530,1369]],"i":[[0,0],[-51.71800000000002,-0.9400000000000546],[-1.0950000000000273,38.23000000000002]],"o":[[0,0],[51.71800000000002,0.9400000000000546],[0,0]]}}},{"ty":"st","o":{"a":0,"k":100},"c":{"a":0,"k":[1,0.38823529411764707,0,1]},"lc":3,"lj":1,"ml":1,"w":{"a":0,"k":50}},{"ty":"fl","o":{"a":0,"k":0},"c":{"a":0,"k":[0,0,0,0]},"r":1},{"ty":"tr","o":{"a":0,"k":100},"a":{"a":0,"k":[0,0]},"s":{"a":0,"k":[-100,100]},"p":{"a":0,"k":[646,-1235.665]},"r":{"a":0,"k":0}}]},{"ty":"gr","nm":"Plastify shape group","it":[{"ty":"sh","ks":{"a":0,"k":{"c":true,"v":[[0.093,0.226],[0.027,0.222],[0.021,0.123],[0.078,0.125],[0.149,0.108],[0.193,0.045],[0.213,-0.01],[-0.003,-0.537],[0.134,-0.537],[0.275,-0.147],[0.345,-0.363],[0.405,-0.537],[0.542,-0.537],[0.316,0.058],[0.229,0.187]],"i":[[0.055999999999999994,0],[0.023000000000000003,0.0030000000000000027],[0,0],[-0.023,0],[-0.017999999999999988,0.011999999999999997],[-0.01100000000000001,0.03],[-0.011999999999999983,0.034],[0,0],[0,0],[0,0],[-0.035999999999999976,0.10499999999999998],[-0.0040000000000000036,0.01100000000000001],[0,0],[0.0020000000000000018,-0.0030000000000000027],[0.035,-0.025999999999999995]],"o":[[-0.021000000000000005,0],[0,0],[0.014000000000000002,0.0020000000000000018],[0.028999999999999998,0],[0.018000000000000016,-0.011999999999999997],[0.0020000000000000018,-0.0029999999999999957],[0,0],[0,0],[0,0],[0.009999999999999953,-0.03900000000000001],[0.03600000000000003,-0.10500000000000004],[0,0],[-0.14900000000000002,0.394],[-0.02300000000000002,0.05999999999999999],[-0.035,0.025999999999999995]]}}},{"ty":"st","o":{"a":0,"k":0},"w":{"a":0,"k":0},"c":{"a":0,"k":[0,0,0,0]},"lc":3,"lj":1,"ml":1},{"ty":"fl","o":{"a":0,"k":100},"r":1,"c":{"a":0,"k":[1,0.38823529411764707,0,1]}},{"ty":"tr","o":{"a":0,"k":100},"a":{"a":0,"k":[0,0]},"s":{"a":0,"k":[54166.600000000006,54166.600000000006]},"p":{"a":0,"k":[1773.261,566.335]},"r":{"a":0,"k":0}}]},{"ty":"gr","nm":"Plastify shape group","it":[{"ty":"sh","ks":{"a":0,"k":{"c":true,"v":[[0.099,0],[0.099,-0.452],[0.014,-0.452],[0.022,-0.527],[0.099,-0.537],[0.099,-0.566],[0.108,-0.65],[0.138,-0.709],[0.193,-0.746],[0.277,-0.758],[0.377,-0.749],[0.366,-0.653],[0.303,-0.659],[0.244,-0.639],[0.227,-0.573],[0.227,-0.537],[0.353,-0.537],[0.353,-0.452],[0.227,-0.452],[0.227,0]],"i":[[0,0],[0,0],[0,0],[0,0],[0,0],[0,0],[-0.006000000000000005,0.02300000000000002],[-0.014000000000000012,0.016000000000000014],[-0.022999999999999993,0.008000000000000007],[-0.03300000000000003,0],[-0.033999999999999975,-0.006000000000000005],[0,0],[0.015000000000000013,0],[0.01200000000000001,-0.013000000000000012],[0,-0.031000000000000028],[0,0],[0,0],[0,0],[0,0],[0,0]],"o":[[0,0],[0,0],[0,0],[0,0],[0,0],[0,-0.03300000000000003],[0.006000000000000005,-0.02300000000000002],[0.012999999999999984,-0.017000000000000015],[0.022999999999999993,-0.008000000000000007],[0.032999999999999974,0],[0,0],[-0.02699999999999997,-0.0040000000000000036],[-0.02799999999999997,0],[-0.010999999999999982,0.013000000000000012],[0,0],[0,0],[0,0],[0,0],[0,0],[0,0]]}}},{"ty":"st","o":{"a":0,"k":0},"w":{"a":0,"k":0},"c":{"a":0,"k":[0,0,0,0]},"lc":3,"lj":1,"ml":1},{"ty":"fl","o":{"a":0,"k":100},"r":1,"c":{"a":0,"k":[1,0.38823529411764707,0,1]}},{"ty":"tr","o":{"a":0,"k":100},"a":{"a":0,"k":[0,0]},"s":{"a":0,"k":[54166.600000000006,54166.600000000006]},"p":{"a":0,"k":[1572.251,566.335]},"r":{"a":0,"k":0}}]},{"ty":"gr","nm":"Plastify shape group","it":[{"ty":"sh","ks":{"a":0,"k":{"c":true,"v":[[0.068,0],[0.068,-0.537],[0.196,-0.537],[0.196,0]],"i":[[0,0],[0,0],[0,0],[0,0]],"o":[[0,0],[0,0],[0,0],[0,0]]}}},{"ty":"sh","ks":{"a":0,"k":{"c":true,"v":[[0.068,-0.615],[0.068,-0.724],[0.196,-0.724],[0.196,-0.615]],"i":[[0,0],[0,0],[0,0],[0,0]],"o":[[0,0],[0,0],[0,0],[0,0]]}}},{"ty":"st","o":{"a":0,"k":0},"w":{"a":0,"k":0},"c":{"a":0,"k":[0,0,0,0]},"lc":3,"lj":1,"ml":1},{"ty":"fl","o":{"a":0,"k":100},"r":1,"c":{"a":0,"k":[1,0.38823529411764707,0,1]}},{"ty":"tr","o":{"a":0,"k":100},"a":{"a":0,"k":[0,0]},"s":{"a":0,"k":[54166.600000000006,54166.600000000006]},"p":{"a":0,"k":[1429.171,566.335]},"r":{"a":0,"k":0}}]},{"ty":"gr","nm":"Plastify shape group","it":[{"ty":"sh","ks":{"a":0,"k":{"c":true,"v":[[0.279,0.007],[0.188,-0.006],[0.131,-0.046],[0.102,-0.112],[0.094,-0.206],[0.094,-0.459],[0.006,-0.459],[0.011,-0.528],[0.103,-0.537],[0.144,-0.682],[0.222,-0.683],[0.222,-0.537],[0.355,-0.537],[0.355,-0.459],[0.222,-0.459],[0.222,-0.203],[0.239,-0.116],[0.304,-0.09],[0.364,-0.095],[0.367,-0.003],[0.355,-0.001],[0.334,0.003],[0.309,0.006]],"i":[[0.008999999999999952,0],[0.023999999999999994,0.009000000000000001],[0.013999999999999985,0.018],[0.006000000000000005,0.02500000000000001],[0,0.03799999999999998],[0,0],[0,0],[0,0],[0,0],[0,0],[0,0],[0,0],[0,0],[0,0],[0,0],[0,0],[-0.010999999999999982,-0.017],[-0.030999999999999972,0],[-0.020999999999999963,0.0030000000000000027],[0,0],[0.008000000000000007,-0.002],[0.007000000000000006,-0.001],[0.010000000000000009,-0.001]],"o":[[-0.03600000000000003,0],[-0.023999999999999994,-0.008],[-0.013000000000000012,-0.019000000000000003],[-0.0049999999999999906,-0.02500000000000001],[0,0],[0,0],[0,0],[0,0],[0,0],[0,0],[0,0],[0,0],[0,0],[0,0],[0,0],[0,0.04100000000000001],[0.01200000000000001,0.017],[0.019000000000000017,0],[0,0],[0,0],[-0.007000000000000006,0.001],[-0.006000000000000005,0.001],[-0.01100000000000001,0.001]]}}},{"ty":"st","o":{"a":0,"k":0},"w":{"a":0,"k":0},"c":{"a":0,"k":[0,0,0,0]},"lc":3,"lj":1,"ml":1},{"ty":"fl","o":{"a":0,"k":100},"r":1,"c":{"a":0,"k":[1,0.38823529411764707,0,1]}},{"ty":"tr","o":{"a":0,"k":100},"a":{"a":0,"k":[0,0]},"s":{"a":0,"k":[54166.600000000006,54166.600000000006]},"p":{"a":0,"k":[1216.781,566.335]},"r":{"a":0,"k":0}}]},{"ty":"gr","nm":"Plastify shape group","it":[{"ty":"sh","ks":{"a":0,"k":{"c":true,"v":[[0.236,0.01],[0.046,-0.031],[0.06,-0.127],[0.142,-0.095],[0.232,-0.082],[0.299,-0.097],[0.323,-0.144],[0.301,-0.188],[0.216,-0.228],[0.188,-0.238],[0.081,-0.302],[0.048,-0.398],[0.101,-0.511],[0.249,-0.55],[0.429,-0.511],[0.397,-0.423],[0.251,-0.458],[0.191,-0.446],[0.169,-0.406],[0.19,-0.367],[0.272,-0.331],[0.285,-0.327],[0.302,-0.32],[0.41,-0.256],[0.445,-0.159],[0.39,-0.034]],"i":[[0.067,0],[0.048,0.027],[0,0],[-0.03399999999999999,-0.009999999999999995],[-0.027000000000000024,0],[-0.016000000000000014,0.010000000000000009],[-0.0010000000000000009,0.01999999999999999],[0.014000000000000012,0.01100000000000001],[0.04100000000000001,0.016000000000000014],[0.0040000000000000036,0.0010000000000000009],[0.021999999999999992,0.022999999999999965],[0,0.040000000000000036],[-0.035,0.026000000000000023],[-0.063,0],[-0.05199999999999999,-0.026000000000000023],[0,0],[0.046999999999999986,0],[0.014999999999999986,-0.008000000000000007],[0,-0.01799999999999996],[-0.014000000000000012,-0.010000000000000009],[-0.04000000000000001,-0.014999999999999958],[-0.006999999999999951,-0.0020000000000000018],[-0.0040000000000000036,-0.0020000000000000018],[-0.022999999999999965,-0.025000000000000022],[0,-0.04000000000000001],[0.035999999999999976,-0.028999999999999998]],"o":[[-0.07899999999999999,0],[0,0],[0.021000000000000005,0.011999999999999997],[0.033,0.009000000000000008],[0.028999999999999998,0],[0.015000000000000013,-0.010999999999999996],[0,-0.019000000000000017],[-0.015000000000000013,-0.01100000000000001],[-0.014999999999999986,-0.0050000000000000044],[-0.04899999999999999,-0.019000000000000017],[-0.022000000000000006,-0.02400000000000002],[0,-0.04899999999999999],[0.036000000000000004,-0.026000000000000023],[0.068,0],[0,0],[-0.051000000000000045,-0.02400000000000002],[-0.024999999999999994,0],[-0.014000000000000012,0.009000000000000008],[0,0.016000000000000014],[0.013999999999999985,0.009000000000000008],[0.0020000000000000018,0],[0.007000000000000006,0.0030000000000000027],[0.04899999999999999,0.018000000000000016],[0.02300000000000002,0.024999999999999994],[-0.0010000000000000009,0.054000000000000006],[-0.03600000000000003,0.029]]}}},{"ty":"st","o":{"a":0,"k":0},"w":{"a":0,"k":0},"c":{"a":0,"k":[0,0,0,0]},"lc":3,"lj":1,"ml":1},{"ty":"fl","o":{"a":0,"k":100},"r":1,"c":{"a":0,"k":[1,0.38823529411764707,0,1]}},{"ty":"tr","o":{"a":0,"k":100},"a":{"a":0,"k":[0,0]},"s":{"a":0,"k":[54166.600000000006,54166.600000000006]},"p":{"a":0,"k":[956.271,566.335]},"r":{"a":0,"k":0}}]},{"ty":"gr","nm":"Plastify shape group","it":[{"ty":"sh","ks":{"a":0,"k":{"c":true,"v":[[0.207,0.01],[0.086,-0.031],[0.04,-0.15],[0.094,-0.274],[0.259,-0.325],[0.292,-0.329],[0.366,-0.336],[0.366,-0.364],[0.344,-0.435],[0.275,-0.458],[0.114,-0.421],[0.098,-0.465],[0.082,-0.509],[0.287,-0.55],[0.444,-0.503],[0.494,-0.35],[0.494,0],[0.399,0],[0.388,-0.033],[0.378,-0.065],[0.3,-0.008]],"i":[[0.036000000000000004,0],[0.030000000000000013,0.028],[0,0.05199999999999999],[-0.036,0.027000000000000024],[-0.07300000000000001,0.007000000000000006],[-0.011999999999999955,0.0020000000000000018],[0,0],[0,0],[0.015000000000000013,0.015000000000000013],[0.030999999999999972,0],[0.06399999999999999,-0.02400000000000002],[0.009999999999999995,0.028000000000000025],[0,0],[-0.07399999999999998,0],[-0.03300000000000003,-0.031000000000000028],[0,-0.07],[0,0],[0,0],[0.007000000000000006,0.021],[0,0.0010000000000000009],[0.025000000000000022,-0.012]],"o":[[-0.04999999999999999,0],[-0.030999999999999993,-0.027999999999999997],[0,-0.055999999999999994],[0.037000000000000005,-0.02699999999999997],[0.010000000000000009,-0.0010000000000000009],[0,0],[0,0],[0,-0.03300000000000003],[-0.014999999999999958,-0.015000000000000013],[-0.04300000000000001,0],[-0.0010000000000000009,-0.0010000000000000009],[-0.01100000000000001,-0.02899999999999997],[0.06299999999999999,-0.027000000000000024],[0.07200000000000001,0],[0.032999999999999974,0.03200000000000003],[0,0],[0,0],[0,-0.001],[-0.007000000000000006,-0.019999999999999997],[-0.027000000000000024,0.026000000000000002],[-0.025999999999999968,0.012]]}}},{"ty":"sh","ks":{"a":0,"k":{"c":true,"v":[[0.241,-0.081],[0.319,-0.102],[0.366,-0.153],[0.366,-0.257],[0.314,-0.253],[0.2,-0.224],[0.164,-0.151],[0.184,-0.099]],"i":[[-0.024999999999999994,0],[-0.02200000000000002,0.013999999999999999],[-0.010000000000000009,0.01999999999999999],[0,0],[0,0],[0.023999999999999994,-0.014999999999999986],[0,-0.034],[-0.012999999999999984,-0.011999999999999997]],"o":[[0.030000000000000027,0],[0.02200000000000002,-0.014000000000000012],[0,0],[0,0],[-0.05199999999999999,0.0050000000000000044],[-0.02400000000000002,0.015000000000000013],[0,0.021999999999999992],[0.013000000000000012,0.01200000000000001]]}}},{"ty":"st","o":{"a":0,"k":0},"w":{"a":0,"k":0},"c":{"a":0,"k":[0,0,0,0]},"lc":3,"lj":1,"ml":1},{"ty":"fl","o":{"a":0,"k":100},"r":1,"c":{"a":0,"k":[1,0.38823529411764707,0,1]}},{"ty":"tr","o":{"a":0,"k":100},"a":{"a":0,"k":[0,0]},"s":{"a":0,"k":[54166.600000000006,54166.600000000006]},"p":{"a":0,"k":[654.225,566.335]},"r":{"a":0,"k":0}}]},{"ty":"gr","nm":"Plastify shape group","it":[{"ty":"sh","ks":{"a":0,"k":{"c":true,"v":[[0.253,0.007],[0.161,-0.006],[0.104,-0.047],[0.075,-0.114],[0.066,-0.211],[0.066,-0.734],[0.194,-0.743],[0.194,-0.214],[0.211,-0.116],[0.278,-0.09],[0.34,-0.096],[0.343,-0.004],[0.331,-0.002],[0.309,0.002],[0.283,0.006]],"i":[[0.009000000000000008,0],[0.024999999999999994,0.009000000000000001],[0.013999999999999999,0.019],[0.0050000000000000044,0.02600000000000001],[0,0.038000000000000006],[0,0],[0,0],[0,0],[-0.010999999999999982,-0.017],[-0.03300000000000003,0],[-0.025000000000000022,0.0040000000000000036],[0,0],[0.008000000000000007,-0.002],[0.007000000000000006,-0.001],[0.010000000000000009,-0.002]],"o":[[-0.037000000000000005,0],[-0.023999999999999994,-0.008],[-0.013999999999999999,-0.019000000000000003],[-0.0059999999999999915,-0.02600000000000001],[0,0],[0,0],[0,0],[0,0.04799999999999999],[0.01200000000000001,0.017],[0.01599999999999996,0],[0,0],[0,0],[-0.007000000000000006,0.002],[-0.007000000000000006,0.001],[-0.010999999999999954,0.001]]}}},{"ty":"st","o":{"a":0,"k":0},"w":{"a":0,"k":0},"c":{"a":0,"k":[0,0,0,0]},"lc":3,"lj":1,"ml":1},{"ty":"fl","o":{"a":0,"k":100},"r":1,"c":{"a":0,"k":[1,0.38823529411764707,0,1]}},{"ty":"tr","o":{"a":0,"k":100},"a":{"a":0,"k":[0,0]},"s":{"a":0,"k":[54166.600000000006,54166.600000000006]},"p":{"a":0,"k":[469.085,566.335]},"r":{"a":0,"k":0}}]},{"ty":"gr","nm":"Plastify shape group","it":[{"ty":"sh","ks":{"a":0,"k":{"c":true,"v":[[0.074,0],[0.074,-0.717],[0.312,-0.717],[0.457,-0.696],[0.552,-0.625],[0.586,-0.502],[0.573,-0.411],[0.53,-0.339],[0.445,-0.289],[0.312,-0.271],[0.204,-0.275],[0.204,0]],"i":[[0,0],[0,0],[0,0],[-0.040000000000000036,-0.014000000000000012],[-0.02400000000000002,-0.03300000000000003],[0,-0.050000000000000044],[0.009000000000000008,-0.027000000000000024],[0.020000000000000018,-0.021999999999999964],[0.035999999999999976,-0.01200000000000001],[0.05199999999999999,0],[0.028000000000000025,0.0020000000000000018],[0,0]],"o":[[0,0],[0,0],[0.055999999999999994,0],[0.03999999999999998,0.014999999999999902],[0.02299999999999991,0.03300000000000003],[0,0.033999999999999975],[-0.009000000000000008,0.025999999999999968],[-0.020000000000000018,0.02200000000000002],[-0.03700000000000003,0.011999999999999955],[-0.043999999999999984,0],[0,0],[0,0]]}}},{"ty":"sh","ks":{"a":0,"k":{"c":true,"v":[[0.298,-0.367],[0.368,-0.375],[0.415,-0.395],[0.442,-0.425],[0.455,-0.46],[0.458,-0.498],[0.42,-0.588],[0.313,-0.619],[0.204,-0.619],[0.204,-0.368]],"i":[[-0.059,0],[-0.020000000000000018,0.0050000000000000044],[-0.010999999999999954,0.008000000000000007],[-0.007000000000000006,0.01200000000000001],[-0.0020000000000000018,0.01100000000000001],[0,0.014000000000000012],[0.026000000000000023,0.02100000000000002],[0.045999999999999985,0],[0,0],[0,0]],"o":[[0.027000000000000024,0],[0.020000000000000018,-0.0050000000000000044],[0.01200000000000001,-0.008000000000000007],[0.007000000000000006,-0.01200000000000001],[0.0020000000000000018,-0.010999999999999954],[0,-0.039000000000000035],[-0.024999999999999967,-0.020000000000000018],[0,0],[0,0],[0.0040000000000000036,0]]}}},{"ty":"st","o":{"a":0,"k":0},"w":{"a":0,"k":0},"c":{"a":0,"k":[0,0,0,0]},"lc":3,"lj":1,"ml":1},{"ty":"fl","o":{"a":0,"k":100},"r":1,"c":{"a":0,"k":[1,0.38823529411764707,0,1]}},{"ty":"tr","o":{"a":0,"k":100},"a":{"a":0,"k":[0,0]},"s":{"a":0,"k":[54166.600000000006,54166.600000000006]},"p":{"a":0,"k":[139.801,566.335]},"r":{"a":0,"k":0}}]}],"op":144},{"ty":4,"nm":"trigger2","ip":0,"st":0,"ind":31,"hix":4,"ks":{"o":{"a":0,"k":100},"or":{"a":0,"k":[0,0,0]},"a":{"a":0,"k":[8.949100341796875,28.229227294921873,0]},"p":{"s":true,"x":{"a":0,"k":449.11},"y":{"a":0,"k":255.313}},"rx":{"a":0,"k":0},"ry":{"a":0,"k":0},"rz":{"a":1,"k":[{"t":0,"s":[0],"e":[-116.88339020668793],"i":{"x":[0.515],"y":[0.955]},"o":{"x":[0.455],"y":[0.03]}},{"t":49,"s":[-116.88339020668793],"e":[0],"i":{"x":[0.515],"y":[0.955]},"o":{"x":[0.455],"y":[0.03]}},{"t":116}]},"s":{"a":0,"k":[100,100,100]}},"shapes":[{"ty":"gr","nm":"trigger2 shape group","it":[{"ty":"sh","ks":{"a":0,"k":{"c":true,"v":[[425.656,310.924],[420.192,308.66],[420.193,297.733],[441.475,276.452],[452.402,276.453],[452.401,287.38],[431.119,308.661]],"i":[[1.975999999999999,0],[1.5090000000000146,1.5089999999999577],[-3.0179999999999723,3.0179999999999723],[0,0],[-3.0190000000000055,-3.016999999999996],[3.0179999999999723,-3.0179999999999723],[0,0]],"o":[[-1.9780000000000086,0],[-3.016999999999996,-3.0170000000000528],[0,0],[3.0159999999999627,-3.016999999999996],[3.016999999999996,3.0170000000000528],[0,0],[-1.5090000000000146,1.5079999999999814]]}}},{"ty":"st","o":{"a":0,"k":0},"w":{"a":0,"k":0},"c":{"a":0,"k":[0,0,0,0]},"lc":3,"lj":1,"ml":1},{"ty":"fl","o":{"a":0,"k":100},"r":1,"c":{"a":0,"k":[0.8745098039215686,0.4196078431372549,0.3411764705882353,1]}},{"ty":"tr","o":{"a":0,"k":100},"a":{"a":0,"k":[0,0]},"s":{"a":0,"k":[100,100]},"p":{"a":0,"k":[-417.175,-273.435]},"r":{"a":0,"k":0}}]}],"op":144},{"ty":4,"nm":"trigger1","ip":0,"st":0,"ind":30,"hix":14,"ks":{"o":{"a":0,"k":100},"or":{"a":0,"k":[0,0,0]},"a":{"a":0,"k":[7.4019884033203125,37.12162338256836,0]},"p":{"s":true,"x":{"a":0,"k":353.946},"y":{"a":0,"k":256.193}},"rx":{"a":0,"k":0},"ry":{"a":0,"k":0},"rz":{"a":1,"k":[{"t":0,"s":[0],"e":[106.57014989433313],"i":{"x":[0.515],"y":[0.955]},"o":{"x":[0.455],"y":[0.03]}},{"t":68,"s":[106.57014989433313],"e":[0],"i":{"x":[0.515],"y":[0.955]},"o":{"x":[0.455],"y":[0.03]}},{"t":116}]},"s":{"a":0,"k":[100,100,100]}},"shapes":[{"ty":"gr","nm":"trigger1 shape group","it":[{"ty":"sh","ks":{"a":0,"k":{"c":true,"v":[[331.273,310.924],[323.547,303.198],[323.547,273.102],[331.273,265.376],[338.999,273.102],[338.999,303.198]],"i":[[4.267999999999972,0],[0,4.266999999999996],[0,0],[-4.267000000000053,0],[0,-4.266999999999996],[0,0]],"o":[[-4.268000000000029,0],[0,0],[0,-4.267999999999972],[4.266999999999996,0],[0,0],[0.0009999999999763531,4.266999999999996]]}}},{"ty":"st","o":{"a":0,"k":0},"w":{"a":0,"k":0},"c":{"a":0,"k":[0,0,0,0]},"lc":3,"lj":1,"ml":1},{"ty":"fl","o":{"a":0,"k":100},"r":1,"c":{"a":0,"k":[0.8745098039215686,0.4196078431372549,0.3411764705882353,1]}},{"ty":"tr","o":{"a":0,"k":100},"a":{"a":0,"k":[0,0]},"s":{"a":0,"k":[100,100]},"p":{"a":0,"k":[-323.547,-265.376]},"r":{"a":0,"k":0}}]}],"op":144},{"ty":4,"nm":"conveyor","ip":0,"st":0,"ind":29,"hix":6,"ks":{"o":{"a":0,"k":100},"or":{"a":0,"k":[0,0,0]},"a":{"a":0,"k":[16.655498504638672,7.7259979248046875,0]},"p":{"s":true,"x":{"a":0,"k":100.75},"y":{"a":0,"k":282.3620007324219}},"rx":{"a":0,"k":0},"ry":{"a":0,"k":0},"rz":{"a":0,"k":0},"s":{"a":0,"k":[100,100,100]}},"shapes":[{"ty":"gr","nm":"conveyor shape group","it":[{"ty":"sh","ks":{"a":0,"k":{"c":true,"v":[[86.679,336.462],[68.82,336.462],[61.094,328.736],[68.82,321.01],[86.679,321.01],[94.405,328.736]],"i":[[4.266999999999996,0],[0,0],[0,4.266999999999996],[-4.266999999999996,0],[0,0],[0,-4.266999999999996]],"o":[[0,0],[-4.2679999999999865,0],[0,-4.266999999999996],[0,0],[4.268000000000001,0],[0,4.266999999999996]]}}},{"ty":"st","o":{"a":0,"k":0},"w":{"a":0,"k":0},"c":{"a":0,"k":[0,0,0,0]},"lc":3,"lj":1,"ml":1},{"ty":"fl","o":{"a":0,"k":100},"r":1,"c":{"a":0,"k":[0.16862745098039217,0.30196078431372547,0.4,1]}},{"ty":"tr","o":{"a":0,"k":100},"a":{"a":0,"k":[0,0]},"s":{"a":0,"k":[100,100]},"p":{"a":0,"k":[-61.094,-321.01]},"r":{"a":0,"k":0}}]}],"op":144},{"ty":4,"nm":"conveyor","ip":0,"st":0,"ind":28,"hix":7,"ks":{"o":{"a":0,"k":100},"or":{"a":0,"k":[0,0,0]},"a":{"a":0,"k":[25.26799964904785,35.89550018310547,0]},"p":{"s":true,"x":{"a":0,"k":100.74900000000002},"y":{"a":0,"k":93.33900073242188}},"rx":{"a":0,"k":0},"ry":{"a":0,"k":0},"rz":{"a":0,"k":0},"s":{"a":0,"k":[100,100,100]}},"shapes":[{"ty":"gr","nm":"conveyor shape group","it":[{"ty":"sh","ks":{"a":0,"k":{"c":true,"v":[[95.29,175.608],[60.207,175.608],[52.481,167.882],[60.207,160.156],[95.29,160.156],[103.016,167.882]],"i":[[4.268000000000001,0],[0,0],[0,4.266999999999996],[-4.267000000000003,0],[0,0],[0,-4.266999999999996]],"o":[[0,0],[-4.268000000000001,0],[0,-4.266999999999996],[0,0],[4.268000000000001,0],[0,4.266999999999996]]}}},{"ty":"st","o":{"a":0,"k":0},"w":{"a":0,"k":0},"c":{"a":0,"k":[0,0,0,0]},"lc":3,"lj":1,"ml":1},{"ty":"fl","o":{"a":0,"k":100},"r":1,"c":{"a":0,"k":[0.9058823529411765,0.9254901960784314,0.9647058823529412,1]}},{"ty":"tr","o":{"a":0,"k":100},"a":{"a":0,"k":[0,0]},"s":{"a":0,"k":[100,100]},"p":{"a":0,"k":[-52.481,-103.817]},"r":{"a":0,"k":0}}]},{"ty":"gr","nm":"conveyor shape group","it":[{"ty":"sh","ks":{"a":0,"k":{"c":true,"v":[[95.29,147.439],[60.207,147.439],[52.481,139.713],[60.207,131.987],[95.29,131.987],[103.016,139.713]],"i":[[4.268000000000001,0],[0,0],[0,4.266999999999996],[-4.267000000000003,0],[0,0],[0,-4.266999999999996]],"o":[[0,0],[-4.268000000000001,0],[0,-4.268000000000001],[0,0],[4.268000000000001,0],[0.000999999999990564,4.266999999999996]]}}},{"ty":"st","o":{"a":0,"k":0},"w":{"a":0,"k":0},"c":{"a":0,"k":[0,0,0,0]},"lc":3,"lj":1,"ml":1},{"ty":"fl","o":{"a":0,"k":100},"r":1,"c":{"a":0,"k":[0.9058823529411765,0.9254901960784314,0.9647058823529412,1]}},{"ty":"tr","o":{"a":0,"k":100},"a":{"a":0,"k":[0,0]},"s":{"a":0,"k":[100,100]},"p":{"a":0,"k":[-52.481,-103.817]},"r":{"a":0,"k":0}}]},{"ty":"gr","nm":"conveyor shape group","it":[{"ty":"sh","ks":{"a":0,"k":{"c":true,"v":[[95.29,119.269],[60.207,119.269],[52.481,111.543],[60.207,103.817],[95.29,103.817],[103.016,111.543]],"i":[[4.268000000000001,0],[0,0],[0,4.266999999999996],[-4.267000000000003,0],[0,0],[0,-4.26700000000001]],"o":[[0,0],[-4.268000000000001,0],[0,-4.268000000000001],[0,0],[4.268000000000001,0],[0.000999999999990564,4.266999999999996]]}}},{"ty":"st","o":{"a":0,"k":0},"w":{"a":0,"k":0},"c":{"a":0,"k":[0,0,0,0]},"lc":3,"lj":1,"ml":1},{"ty":"fl","o":{"a":0,"k":100},"r":1,"c":{"a":0,"k":[0.9058823529411765,0.9254901960784314,0.9647058823529412,1]}},{"ty":"tr","o":{"a":0,"k":100},"a":{"a":0,"k":[0,0]},"s":{"a":0,"k":[100,100]},"p":{"a":0,"k":[-52.481,-103.817]},"r":{"a":0,"k":0}}]}],"op":144},{"ty":4,"nm":"conveyor","ip":0,"st":0,"ind":27,"hix":8,"ks":{"o":{"a":0,"k":100},"or":{"a":0,"k":[0,0,0]},"a":{"a":0,"k":[40.89800262451172,7.72601318359375,0]},"p":{"s":true,"x":{"a":0,"k":240.05900000000003},"y":{"a":0,"k":290.0570007324219}},"rx":{"a":0,"k":0},"ry":{"a":0,"k":0},"rz":{"a":0,"k":0},"s":{"a":0,"k":[100,100,100]}},"shapes":[{"ty":"gr","nm":"conveyor shape group","it":[{"ty":"sh","ks":{"a":0,"k":{"c":true,"v":[[250.231,344.157],[244.199,344.157],[236.473,336.431],[244.199,328.705],[250.231,328.705],[257.957,336.431]],"i":[[4.268000000000001,0],[0,0],[0,4.266999999999996],[-4.267000000000024,0],[0,0],[0,-4.266999999999996]],"o":[[0,0],[-4.268000000000001,0],[0,-4.266999999999996],[0,0],[4.268000000000001,0],[0,4.266999999999996]]}}},{"ty":"st","o":{"a":0,"k":0},"w":{"a":0,"k":0},"c":{"a":0,"k":[0,0,0,0]},"lc":3,"lj":1,"ml":1},{"ty":"fl","o":{"a":0,"k":100},"r":1,"c":{"a":0,"k":[0.16862745098039217,0.30196078431372547,0.4,1]}},{"ty":"tr","o":{"a":0,"k":100},"a":{"a":0,"k":[0,0]},"s":{"a":0,"k":[100,100]},"p":{"a":0,"k":[-176.161,-328.705]},"r":{"a":0,"k":0}}]},{"ty":"gr","nm":"conveyor shape group","it":[{"ty":"sh","ks":{"a":0,"k":{"c":true,"v":[[220.075,344.157],[214.043,344.157],[206.317,336.431],[214.043,328.705],[220.075,328.705],[227.801,336.431]],"i":[[4.268000000000001,0],[0,0],[0,4.266999999999996],[-4.266999999999996,0],[0,0],[0,-4.266999999999996]],"o":[[0,0],[-4.268000000000001,0],[0,-4.266999999999996],[0,0],[4.268000000000001,0],[0,4.266999999999996]]}}},{"ty":"st","o":{"a":0,"k":0},"w":{"a":0,"k":0},"c":{"a":0,"k":[0,0,0,0]},"lc":3,"lj":1,"ml":1},{"ty":"fl","o":{"a":0,"k":100},"r":1,"c":{"a":0,"k":[0.16862745098039217,0.30196078431372547,0.4,1]}},{"ty":"tr","o":{"a":0,"k":100},"a":{"a":0,"k":[0,0]},"s":{"a":0,"k":[100,100]},"p":{"a":0,"k":[-176.161,-328.705]},"r":{"a":0,"k":0}}]},{"ty":"gr","nm":"conveyor shape group","it":[{"ty":"sh","ks":{"a":0,"k":{"c":true,"v":[[189.919,344.157],[183.887,344.157],[176.161,336.431],[183.887,328.705],[189.919,328.705],[197.645,336.431]],"i":[[4.268000000000001,0],[0,0],[0,4.266999999999996],[-4.266999999999996,0],[0,0],[0,-4.266999999999996]],"o":[[0,0],[-4.268000000000001,0],[0,-4.266999999999996],[0,0],[4.268000000000001,0],[0,4.266999999999996]]}}},{"ty":"st","o":{"a":0,"k":0},"w":{"a":0,"k":0},"c":{"a":0,"k":[0,0,0,0]},"lc":3,"lj":1,"ml":1},{"ty":"fl","o":{"a":0,"k":100},"r":1,"c":{"a":0,"k":[0.16862745098039217,0.30196078431372547,0.4,1]}},{"ty":"tr","o":{"a":0,"k":100},"a":{"a":0,"k":[0,0]},"s":{"a":0,"k":[100,100]},"p":{"a":0,"k":[-176.161,-328.705]},"r":{"a":0,"k":0}}]}],"op":144},{"ty":4,"nm":"conveyor","ip":0,"st":0,"ind":26,"hix":9,"ks":{"o":{"a":0,"k":100},"or":{"a":0,"k":[0,0,0]},"a":{"a":0,"k":[40.89800262451172,7.72601318359375,0]},"p":{"s":true,"x":{"a":0,"k":240.05900000000003},"y":{"a":0,"k":261.52700073242187}},"rx":{"a":0,"k":0},"ry":{"a":0,"k":0},"rz":{"a":0,"k":0},"s":{"a":0,"k":[100,100,100]}},"shapes":[{"ty":"gr","nm":"conveyor shape group","it":[{"ty":"sh","ks":{"a":0,"k":{"c":true,"v":[[250.231,315.627],[244.199,315.627],[236.473,307.901],[244.199,300.175],[250.231,300.175],[257.957,307.901]],"i":[[4.268000000000001,0],[0,0],[0,4.266999999999996],[-4.267000000000024,0],[0,0],[0,-4.266999999999996]],"o":[[0,0],[-4.268000000000001,0],[0,-4.266999999999996],[0,0],[4.268000000000001,0],[0,4.266999999999996]]}}},{"ty":"st","o":{"a":0,"k":0},"w":{"a":0,"k":0},"c":{"a":0,"k":[0,0,0,0]},"lc":3,"lj":1,"ml":1},{"ty":"fl","o":{"a":0,"k":100},"r":1,"c":{"a":0,"k":[0.16862745098039217,0.30196078431372547,0.4,1]}},{"ty":"tr","o":{"a":0,"k":100},"a":{"a":0,"k":[0,0]},"s":{"a":0,"k":[100,100]},"p":{"a":0,"k":[-176.161,-300.175]},"r":{"a":0,"k":0}}]},{"ty":"gr","nm":"conveyor shape group","it":[{"ty":"sh","ks":{"a":0,"k":{"c":true,"v":[[220.075,315.627],[214.043,315.627],[206.317,307.901],[214.043,300.175],[220.075,300.175],[227.801,307.901]],"i":[[4.268000000000001,0],[0,0],[0,4.266999999999996],[-4.266999999999996,0],[0,0],[0,-4.266999999999996]],"o":[[0,0],[-4.268000000000001,0],[0,-4.266999999999996],[0,0],[4.268000000000001,0],[0,4.266999999999996]]}}},{"ty":"st","o":{"a":0,"k":0},"w":{"a":0,"k":0},"c":{"a":0,"k":[0,0,0,0]},"lc":3,"lj":1,"ml":1},{"ty":"fl","o":{"a":0,"k":100},"r":1,"c":{"a":0,"k":[0.16862745098039217,0.30196078431372547,0.4,1]}},{"ty":"tr","o":{"a":0,"k":100},"a":{"a":0,"k":[0,0]},"s":{"a":0,"k":[100,100]},"p":{"a":0,"k":[-176.161,-300.175]},"r":{"a":0,"k":0}}]},{"ty":"gr","nm":"conveyor shape group","it":[{"ty":"sh","ks":{"a":0,"k":{"c":true,"v":[[189.919,315.627],[183.887,315.627],[176.161,307.901],[183.887,300.175],[189.919,300.175],[197.645,307.901]],"i":[[4.268000000000001,0],[0,0],[0,4.266999999999996],[-4.266999999999996,0],[0,0],[0,-4.266999999999996]],"o":[[0,0],[-4.268000000000001,0],[0,-4.266999999999996],[0,0],[4.268000000000001,0],[0,4.266999999999996]]}}},{"ty":"st","o":{"a":0,"k":0},"w":{"a":0,"k":0},"c":{"a":0,"k":[0,0,0,0]},"lc":3,"lj":1,"ml":1},{"ty":"fl","o":{"a":0,"k":100},"r":1,"c":{"a":0,"k":[0.16862745098039217,0.30196078431372547,0.4,1]}},{"ty":"tr","o":{"a":0,"k":100},"a":{"a":0,"k":[0,0]},"s":{"a":0,"k":[100,100]},"p":{"a":0,"k":[-176.161,-300.175]},"r":{"a":0,"k":0}}]}],"op":144},{"ty":4,"nm":"conveyor","ip":0,"st":0,"ind":25,"hix":10,"ks":{"o":{"a":0,"k":100},"or":{"a":0,"k":[0,0,0]},"a":{"a":0,"k":[40.89800262451172,7.7259979248046875,0]},"p":{"s":true,"x":{"a":0,"k":240.05900000000003},"y":{"a":0,"k":232.9970007324219}},"rx":{"a":0,"k":0},"ry":{"a":0,"k":0},"rz":{"a":0,"k":0},"s":{"a":0,"k":[100,100,100]}},"shapes":[{"ty":"gr","nm":"conveyor shape group","it":[{"ty":"sh","ks":{"a":0,"k":{"c":true,"v":[[250.231,287.097],[244.199,287.097],[236.473,279.371],[244.199,271.645],[250.231,271.645],[257.957,279.371]],"i":[[4.268000000000001,0],[0,0],[0,4.266999999999996],[-4.267000000000024,0],[0,0],[0,-4.266999999999996]],"o":[[0,0],[-4.268000000000001,0],[0,-4.266999999999996],[0,0],[4.268000000000001,0],[0,4.266999999999996]]}}},{"ty":"st","o":{"a":0,"k":0},"w":{"a":0,"k":0},"c":{"a":0,"k":[0,0,0,0]},"lc":3,"lj":1,"ml":1},{"ty":"fl","o":{"a":0,"k":100},"r":1,"c":{"a":0,"k":[0.16862745098039217,0.30196078431372547,0.4,1]}},{"ty":"tr","o":{"a":0,"k":100},"a":{"a":0,"k":[0,0]},"s":{"a":0,"k":[100,100]},"p":{"a":0,"k":[-176.161,-271.645]},"r":{"a":0,"k":0}}]},{"ty":"gr","nm":"conveyor shape group","it":[{"ty":"sh","ks":{"a":0,"k":{"c":true,"v":[[220.075,287.097],[214.043,287.097],[206.317,279.371],[214.043,271.645],[220.075,271.645],[227.801,279.371]],"i":[[4.268000000000001,0],[0,0],[0,4.266999999999996],[-4.266999999999996,0],[0,0],[0,-4.266999999999996]],"o":[[0,0],[-4.268000000000001,0],[0,-4.266999999999996],[0,0],[4.268000000000001,0],[0,4.266999999999996]]}}},{"ty":"st","o":{"a":0,"k":0},"w":{"a":0,"k":0},"c":{"a":0,"k":[0,0,0,0]},"lc":3,"lj":1,"ml":1},{"ty":"fl","o":{"a":0,"k":100},"r":1,"c":{"a":0,"k":[0.16862745098039217,0.30196078431372547,0.4,1]}},{"ty":"tr","o":{"a":0,"k":100},"a":{"a":0,"k":[0,0]},"s":{"a":0,"k":[100,100]},"p":{"a":0,"k":[-176.161,-271.645]},"r":{"a":0,"k":0}}]},{"ty":"gr","nm":"conveyor shape group","it":[{"ty":"sh","ks":{"a":0,"k":{"c":true,"v":[[189.919,287.097],[183.887,287.097],[176.161,279.371],[183.887,271.645],[189.919,271.645],[197.645,279.371]],"i":[[4.268000000000001,0],[0,0],[0,4.266999999999996],[-4.266999999999996,0],[0,0],[0,-4.266999999999996]],"o":[[0,0],[-4.268000000000001,0],[0,-4.266999999999996],[0,0],[4.268000000000001,0],[0,4.266999999999996]]}}},{"ty":"st","o":{"a":0,"k":0},"w":{"a":0,"k":0},"c":{"a":0,"k":[0,0,0,0]},"lc":3,"lj":1,"ml":1},{"ty":"fl","o":{"a":0,"k":100},"r":1,"c":{"a":0,"k":[0.16862745098039217,0.30196078431372547,0.4,1]}},{"ty":"tr","o":{"a":0,"k":100},"a":{"a":0,"k":[0,0]},"s":{"a":0,"k":[100,100]},"p":{"a":0,"k":[-176.161,-271.645]},"r":{"a":0,"k":0}}]}],"op":144},{"ty":4,"nm":"conveyor","ip":0,"st":0,"ind":24,"hix":11,"ks":{"o":{"a":0,"k":0},"or":{"a":0,"k":[0,0,0]},"a":{"a":0,"k":[19.12200927734375,18.7445068359375,0]},"p":{"s":true,"x":{"a":0,"k":459.297},"y":{"a":0,"k":245.80600073242186}},"rx":{"a":0,"k":0},"ry":{"a":0,"k":0},"rz":{"a":0,"k":0},"s":{"a":0,"k":[100,100,100]}},"shapes":[{"ty":"gr","nm":"conveyor shape group","it":[{"ty":"sh","ks":{"a":0,"k":{"c":true,"v":[[425.656,310.924],[420.192,308.66],[420.193,297.733],[441.475,276.452],[452.402,276.453],[452.401,287.38],[431.119,308.661]],"i":[[1.975999999999999,0],[1.5090000000000146,1.5089999999999577],[-3.0179999999999723,3.0179999999999723],[0,0],[-3.0190000000000055,-3.016999999999996],[3.0179999999999723,-3.0179999999999723],[0,0]],"o":[[-1.9780000000000086,0],[-3.016999999999996,-3.0170000000000528],[0,0],[3.0159999999999627,-3.016999999999996],[3.016999999999996,3.0170000000000528],[0,0],[-1.5090000000000146,1.5079999999999814]]}}},{"ty":"st","o":{"a":0,"k":0},"w":{"a":0,"k":0},"c":{"a":0,"k":[0,0,0,0]},"lc":3,"lj":1,"ml":1},{"ty":"fl","o":{"a":0,"k":100},"r":1,"c":{"a":0,"k":[0.8745098039215686,0.4196078431372549,0.3411764705882353,1]}},{"ty":"tr","o":{"a":0,"k":100},"a":{"a":0,"k":[0,0]},"s":{"a":0,"k":[100,100]},"p":{"a":0,"k":[-417.175,-273.435]},"r":{"a":0,"k":0}}]}],"op":144},{"ty":4,"nm":"conveyor","ip":0,"st":0,"ind":23,"hix":12,"ks":{"o":{"a":0,"k":100},"or":{"a":0,"k":[0,0,0]},"a":{"a":0,"k":[19.3800048828125,30.095993041992188,0]},"p":{"s":true,"x":{"a":0,"k":459.372},"y":{"a":0,"k":256.82300073242186}},"rx":{"a":0,"k":0},"ry":{"a":0,"k":0},"rz":{"a":0,"k":0},"s":{"a":0,"k":[100,100,100]}},"shapes":[{"ty":"gr","nm":"conveyor shape group","it":[{"ty":"sh","ks":{"a":0,"k":{"c":true,"v":[[425.656,273.101],[416.992,274.373],[438.423,303.197],[416.992,332.021],[425.656,333.293],[455.752,303.197]],"i":[[16.622000000000014,0],[2.7439999999999714,-0.8240000000000123],[0,-13.60899999999998],[12.395999999999958,-3.722000000000037],[-3.0120000000000005,0],[0,16.622000000000014]],"o":[[-3.0130000000000337,0],[12.396999999999991,3.722000000000037],[0,13.60899999999998],[2.7439999999999714,0.8240000000000123],[16.62099999999998,0],[0,-16.62099999999998]]}}},{"ty":"st","o":{"a":0,"k":0},"w":{"a":0,"k":0},"c":{"a":0,"k":[0,0,0,0]},"lc":3,"lj":1,"ml":1},{"ty":"fl","o":{"a":0,"k":100},"r":1,"c":{"a":0,"k":[0.8470588235294118,0.8862745098039215,0.9450980392156862,1]}},{"ty":"tr","o":{"a":0,"k":100},"a":{"a":0,"k":[0,0]},"s":{"a":0,"k":[100,100]},"p":{"a":0,"k":[-416.992,-273.101]},"r":{"a":0,"k":0}}]}],"op":144},{"ty":4,"nm":"conveyor","ip":0,"st":0,"ind":22,"hix":13,"ks":{"o":{"a":0,"k":100},"or":{"a":0,"k":[0,0,0]},"a":{"a":0,"k":[30.09600067138672,30.09600067138672,0]},"p":{"s":true,"x":{"a":0,"k":448.656},"y":{"a":0,"k":256.82300073242186}},"rx":{"a":0,"k":0},"ry":{"a":0,"k":0},"rz":{"a":0,"k":0},"s":{"a":0,"k":[100,100,100]}},"shapes":[{"ty":"gr","nm":"conveyor shape group","it":[{"ty":"el","p":{"a":0,"k":[425,303]},"s":{"a":0,"k":[60.192,60.192]}},{"ty":"st","o":{"a":0,"k":0},"w":{"a":0,"k":0},"c":{"a":0,"k":[0,0,0,0]},"lc":3,"lj":1,"ml":1},{"ty":"fl","o":{"a":0,"k":100},"r":2,"c":{"a":0,"k":[0.9058823529411765,0.9254901960784314,0.9647058823529412,1]}},{"ty":"tr","o":{"a":0,"k":100},"a":{"a":0,"k":[0,0]},"s":{"a":0,"k":[100,100]},"p":{"a":0,"k":[-395.56,-273.101]},"r":{"a":0,"k":0}}]}],"op":144},{"ty":4,"nm":"conveyor","ip":0,"st":0,"ind":21,"hix":15,"ks":{"o":{"a":0,"k":100},"or":{"a":0,"k":[0,0,0]},"a":{"a":0,"k":[19.379989624023438,30.095993041992188,0]},"p":{"s":true,"x":{"a":0,"k":364.98900000000003},"y":{"a":0,"k":256.82300073242186}},"rx":{"a":0,"k":0},"ry":{"a":0,"k":0},"rz":{"a":0,"k":0},"s":{"a":0,"k":[100,100,100]}},"shapes":[{"ty":"gr","nm":"conveyor shape group","it":[{"ty":"sh","ks":{"a":0,"k":{"c":true,"v":[[331.273,273.101],[322.609,274.373],[344.04,303.197],[322.609,332.021],[331.273,333.293],[361.369,303.197]],"i":[[16.621999999999957,0],[2.744000000000028,-0.8240000000000123],[0,-13.60899999999998],[12.396000000000015,-3.722000000000037],[-3.0120000000000005,0],[0,16.622000000000014]],"o":[[-3.0130000000000337,0],[12.396999999999991,3.722000000000037],[0,13.60899999999998],[2.744000000000028,0.8240000000000123],[16.62099999999998,0],[0,-16.62099999999998]]}}},{"ty":"st","o":{"a":0,"k":0},"w":{"a":0,"k":0},"c":{"a":0,"k":[0,0,0,0]},"lc":3,"lj":1,"ml":1},{"ty":"fl","o":{"a":0,"k":100},"r":1,"c":{"a":0,"k":[0.8470588235294118,0.8862745098039215,0.9450980392156862,1]}},{"ty":"tr","o":{"a":0,"k":100},"a":{"a":0,"k":[0,0]},"s":{"a":0,"k":[100,100]},"p":{"a":0,"k":[-322.609,-273.101]},"r":{"a":0,"k":0}}]}],"op":144},{"ty":4,"nm":"conveyor","ip":0,"st":0,"ind":20,"hix":16,"ks":{"o":{"a":0,"k":100},"or":{"a":0,"k":[0,0,0]},"a":{"a":0,"k":[30.09600067138672,30.09600067138672,0]},"p":{"s":true,"x":{"a":0,"k":354.273},"y":{"a":0,"k":256.82300073242186}},"rx":{"a":0,"k":0},"ry":{"a":0,"k":0},"rz":{"a":0,"k":0},"s":{"a":0,"k":[100,100,100]}},"shapes":[{"ty":"gr","nm":"conveyor shape group","it":[{"ty":"el","p":{"a":0,"k":[331,303]},"s":{"a":0,"k":[60.192,60.192]}},{"ty":"st","o":{"a":0,"k":0},"w":{"a":0,"k":0},"c":{"a":0,"k":[0,0,0,0]},"lc":3,"lj":1,"ml":1},{"ty":"fl","o":{"a":0,"k":100},"r":2,"c":{"a":0,"k":[0.9058823529411765,0.9254901960784314,0.9647058823529412,1]}},{"ty":"tr","o":{"a":0,"k":100},"a":{"a":0,"k":[0,0]},"s":{"a":0,"k":[100,100]},"p":{"a":0,"k":[-301.177,-273.101]},"r":{"a":0,"k":0}}]}],"op":144},{"ty":4,"nm":"conveyor","ip":0,"st":0,"ind":19,"hix":17,"ks":{"o":{"a":0,"k":100},"or":{"a":0,"k":[0,0,0]},"a":{"a":0,"k":[11.158493041992188,52.88800048828125,0]},"p":{"s":true,"x":{"a":0,"k":284.94800000000004},"y":{"a":0,"k":261.52700073242187}},"rx":{"a":0,"k":0},"ry":{"a":0,"k":0},"rz":{"a":0,"k":0},"s":{"a":0,"k":[100,100,100]}},"shapes":[{"ty":"gr","nm":"conveyor shape group","it":[{"ty":"sh","ks":{"a":0,"k":{"c":true,"v":[[269.399,255.013],[250.789,255.013],[254.496,258.72],[254.496,360.789],[273.106,360.789],[273.106,258.72]],"i":[[2.0470000000000255,0],[0,0],[0,-2.0470000000000255],[0,0],[0,0],[0,0]],"o":[[0,0],[2.0470000000000255,0],[0,0],[0,0],[0,0],[0,-2.048000000000002]]}}},{"ty":"st","o":{"a":0,"k":0},"w":{"a":0,"k":0},"c":{"a":0,"k":[0,0,0,0]},"lc":3,"lj":1,"ml":1},{"ty":"fl","o":{"a":0,"k":100},"r":1,"c":{"a":0,"k":[0.8470588235294118,0.8862745098039215,0.9450980392156862,1]}},{"ty":"tr","o":{"a":0,"k":100},"a":{"a":0,"k":[0,0]},"s":{"a":0,"k":[100,100]},"p":{"a":0,"k":[-250.789,-255.013]},"r":{"a":0,"k":0}}]}],"op":144},{"ty":4,"nm":"conveyor","ip":0,"st":0,"ind":18,"hix":18,"ks":{"o":{"a":0,"k":100},"or":{"a":0,"k":[0,0,0]},"a":{"a":0,"k":[56.04649353027344,52.88749694824219,0]},"p":{"s":true,"x":{"a":0,"k":240.06},"y":{"a":0,"k":261.5260007324219}},"rx":{"a":0,"k":0},"ry":{"a":0,"k":0},"rz":{"a":0,"k":0},"s":{"a":0,"k":[100,100,100]}},"shapes":[{"ty":"gr","nm":"conveyor shape group","it":[{"ty":"sh","ks":{"a":0,"k":{"c":true,"v":[[273.106,360.788],[161.013,360.788],[161.013,258.72],[164.72,255.013],[269.399,255.013],[273.106,258.72]],"i":[[0,0],[0,0],[0,0],[-2.046999999999997,0],[0,0],[0,-2.0470000000000255]],"o":[[0,0],[0,0],[0,-2.0470000000000255],[0,0],[2.0470000000000255,0],[0,0]]}}},{"ty":"st","o":{"a":0,"k":0},"w":{"a":0,"k":0},"c":{"a":0,"k":[0,0,0,0]},"lc":3,"lj":1,"ml":1},{"ty":"fl","o":{"a":0,"k":100},"r":1,"c":{"a":0,"k":[0.9058823529411765,0.9254901960784314,0.9647058823529412,1]}},{"ty":"tr","o":{"a":0,"k":100},"a":{"a":0,"k":[0,0]},"s":{"a":0,"k":[100,100]},"p":{"a":0,"k":[-161.013,-255.013]},"r":{"a":0,"k":0}}]}],"op":144},{"ty":4,"nm":"conveyor","ip":0,"st":0,"ind":17,"hix":19,"ks":{"o":{"a":0,"k":100},"or":{"a":0,"k":[0,0,0]},"a":{"a":0,"k":[17.972999572753906,17.972999572753906,0]},"p":{"s":true,"x":{"a":1,"k":[{"t":0,"s":[100.74900000000002],"e":[100.2490234375],"i":{"x":[0.515],"y":[0.955]},"o":{"x":[0.455],"y":[0.03]}},{"t":13,"s":[100.2490234375],"e":[100.2490234375],"i":{"x":[1],"y":[1]},"o":{"x":[0],"y":[0]}},{"t":24}]},"y":{"a":1,"k":[{"t":0,"s":[221.04400073242186],"e":[246.07698822021484],"i":{"x":[0.515],"y":[0.955]},"o":{"x":[0.455],"y":[0.03]}},{"t":13,"s":[246.07698822021484],"e":[218.50201416015625],"i":{"x":[0.515],"y":[0.955]},"o":{"x":[0.455],"y":[0.03]}},{"t":24}]}},"rx":{"a":0,"k":0},"ry":{"a":0,"k":0},"rz":{"a":0,"k":0},"s":{"a":0,"k":[100,100,100]}},"shapes":[{"ty":"gr","nm":"conveyor shape group","it":[{"ty":"el","p":{"a":0,"k":[77,267]},"s":{"a":0,"k":[35.946,35.946]}},{"ty":"st","o":{"a":0,"k":0},"w":{"a":0,"k":0},"c":{"a":0,"k":[0,0,0,0]},"lc":3,"lj":1,"ml":1},{"ty":"fl","o":{"a":0,"k":100},"r":2,"c":{"a":0,"k":[0.8745098039215686,0.4196078431372549,0.3411764705882353,1]}},{"ty":"tr","o":{"a":0,"k":100},"a":{"a":0,"k":[0,0]},"s":{"a":0,"k":[100,100]},"p":{"a":0,"k":[-59.776,-249.445]},"r":{"a":0,"k":0}}]}],"op":144},{"ty":4,"nm":"conveyor","ip":0,"st":0,"ind":16,"hix":20,"ks":{"o":{"a":0,"k":100},"or":{"a":0,"k":[0,0,0]},"a":{"a":0,"k":[7.7259979248046875,30.429000854492188,0]},"p":{"s":true,"x":{"a":0,"k":100.74900000000002},"y":{"a":0,"k":259.6590007324219}},"rx":{"a":0,"k":0},"ry":{"a":0,"k":0},"rz":{"a":0,"k":0},"s":{"a":0,"k":[100,100,100]}},"shapes":[{"ty":"gr","nm":"conveyor shape group","it":[{"ty":"sh","ks":{"a":0,"k":{"c":true,"v":[[77.749,336.462],[70.023,328.736],[70.023,283.33],[77.749,275.604],[85.475,283.33],[85.475,328.735]],"i":[[4.268000000000001,0],[0,4.266999999999996],[0,0],[-4.266999999999996,0],[0,-4.266999999999996],[0,0]],"o":[[-4.268000000000001,0],[0,0],[0,-4.267999999999972],[4.268000000000001,0],[0,0],[0,4.267999999999972]]}}},{"ty":"st","o":{"a":0,"k":0},"w":{"a":0,"k":0},"c":{"a":0,"k":[0,0,0,0]},"lc":3,"lj":1,"ml":1},{"ty":"fl","o":{"a":0,"k":100},"r":1,"c":{"a":0,"k":[0.21176470588235294,0.3686274509803922,0.49019607843137253,1]}},{"ty":"tr","o":{"a":0,"k":100},"a":{"a":0,"k":[0,0]},"s":{"a":0,"k":[100,100]},"p":{"a":0,"k":[-70.023,-275.604]},"r":{"a":0,"k":0}}]}],"op":144},{"ty":4,"nm":"conveyor","ip":0,"st":0,"ind":15,"hix":21,"ks":{"o":{"a":0,"k":100},"or":{"a":0,"k":[0,0,0]},"a":{"a":0,"k":[23.219497680664062,13.026504516601562,0]},"p":{"s":true,"x":{"a":0,"k":467.057},"y":{"a":0,"k":154.5210007324219}},"rx":{"a":0,"k":0},"ry":{"a":0,"k":0},"rz":{"a":0,"k":0},"s":{"a":0,"k":[100,100,100]}},"shapes":[{"ty":"gr","nm":"conveyor shape group","it":[{"ty":"sh","ks":{"a":0,"k":{"c":true,"v":[[445.131,187.868],[420.837,187.868],[442.982,210.013],[442.982,213.921],[467.276,213.921],[467.276,210.013]],"i":[[12.230000000000018,0],[0,0],[0,-12.230999999999995],[0,0],[0,0],[0,0]],"o":[[0,0],[12.230000000000018,0],[0,0],[0,0],[0,0],[0,-12.230999999999995]]}}},{"ty":"st","o":{"a":0,"k":0},"w":{"a":0,"k":0},"c":{"a":0,"k":[0,0,0,0]},"lc":3,"lj":1,"ml":1},{"ty":"fl","o":{"a":0,"k":100},"r":1,"c":{"a":0,"k":[0.16862745098039217,0.30196078431372547,0.4,1]}},{"ty":"tr","o":{"a":0,"k":100},"a":{"a":0,"k":[0,0]},"s":{"a":0,"k":[100,100]},"p":{"a":0,"k":[-420.837,-187.868]},"r":{"a":0,"k":0}}]}],"op":144},{"ty":4,"nm":"conveyor","ip":0,"st":0,"ind":14,"hix":22,"ks":{"o":{"a":0,"k":100},"or":{"a":0,"k":[0,0,0]},"a":{"a":0,"k":[8.555503845214844,13.026496887207031,0]},"p":{"s":true,"x":{"a":0,"k":159.08},"y":{"a":0,"k":154.52000073242186}},"rx":{"a":0,"k":0},"ry":{"a":0,"k":0},"rz":{"a":0,"k":0},"s":{"a":0,"k":[100,100,100]}},"shapes":[{"ty":"gr","nm":"conveyor shape group","it":[{"ty":"rc","s":{"a":0,"k":[17.111,26.053]},"r":{"a":0,"k":0},"p":{"a":0,"k":[136.0795,200.8945]}},{"ty":"st","o":{"a":0,"k":0},"w":{"a":0,"k":0},"c":{"a":0,"k":[0,0,0,0]},"lc":3,"lj":1,"ml":1},{"ty":"fl","o":{"a":0,"k":100},"r":1,"c":{"a":0,"k":[0.16862745098039217,0.30196078431372547,0.4,1]}},{"ty":"tr","o":{"a":0,"k":100},"a":{"a":0,"k":[0,0]},"s":{"a":0,"k":[100,100]},"p":{"a":0,"k":[-127.524,-187.868]},"r":{"a":0,"k":0}}]}],"op":144},{"ty":4,"nm":"conveyor","ip":0,"st":0,"ind":13,"hix":23,"ks":{"o":{"a":0,"k":100},"or":{"a":0,"k":[0,0,0]},"a":{"a":0,"k":[169.87600708007812,13.026504516601562,0]},"p":{"s":true,"x":{"a":0,"k":320.40000000000003},"y":{"a":0,"k":154.5210007324219}},"rx":{"a":0,"k":0},"ry":{"a":0,"k":0},"rz":{"a":0,"k":0},"s":{"a":0,"k":[100,100,100]}},"shapes":[{"ty":"gr","nm":"conveyor shape group","it":[{"ty":"sh","ks":{"a":0,"k":{"c":true,"v":[[445.131,187.868],[127.524,187.868],[127.524,213.921],[467.276,213.921],[467.276,210.012]],"i":[[12.230000000000018,0],[0,0],[0,0],[0,0],[0,0]],"o":[[0,0],[0,0],[0,0],[0,0],[0,-12.22999999999999]]}}},{"ty":"st","o":{"a":0,"k":0},"w":{"a":0,"k":0},"c":{"a":0,"k":[0,0,0,0]},"lc":3,"lj":1,"ml":1},{"ty":"fl","o":{"a":0,"k":100},"r":1,"c":{"a":0,"k":[0.21176470588235294,0.3686274509803922,0.49019607843137253,1]}},{"ty":"tr","o":{"a":0,"k":100},"a":{"a":0,"k":[0,0]},"s":{"a":0,"k":[100,100]},"p":{"a":0,"k":[-127.524,-187.868]},"r":{"a":0,"k":0}}]}],"op":144},{"ty":4,"nm":"conveyor","ip":0,"st":0,"ind":12,"hix":24,"ks":{"o":{"a":0,"k":100},"or":{"a":0,"k":[0,0,0]},"a":{"a":0,"k":[12.548995971679688,73.43399810791016,0]},"p":{"s":true,"x":{"a":0,"k":494.47700000000003},"y":{"a":0,"k":240.98100073242188}},"rx":{"a":0,"k":0},"ry":{"a":0,"k":0},"rz":{"a":0,"k":0},"s":{"a":0,"k":[100,100,100]}},"shapes":[{"ty":"gr","nm":"conveyor shape group","it":[{"ty":"sh","ks":{"a":0,"k":{"c":true,"v":[[477.931,213.921],[458.928,213.921],[465.022,220.016],[465.022,360.789],[484.025,360.789],[484.025,220.016]],"i":[[3.3660000000000423,0],[0,0],[0,-3.3659999999999854],[0,0],[0,0],[0,0]],"o":[[0,0],[3.3659999999999854,0],[0,0],[0,0],[0,0],[0.0010000000000331966,-3.3659999999999854]]}}},{"ty":"st","o":{"a":0,"k":0},"w":{"a":0,"k":0},"c":{"a":0,"k":[0,0,0,0]},"lc":3,"lj":1,"ml":1},{"ty":"fl","o":{"a":0,"k":100},"r":1,"c":{"a":0,"k":[0.7176470588235294,0.7843137254901961,0.9176470588235294,1]}},{"ty":"tr","o":{"a":0,"k":100},"a":{"a":0,"k":[0,0]},"s":{"a":0,"k":[100,100]},"p":{"a":0,"k":[-458.928,-213.921]},"r":{"a":0,"k":0}}]}],"op":144},{"ty":4,"nm":"conveyor","ip":0,"st":0,"ind":11,"hix":25,"ks":{"o":{"a":0,"k":100},"or":{"a":0,"k":[0,0,0]},"a":{"a":0,"k":[178.25100708007812,73.4334945678711,0]},"p":{"s":true,"x":{"a":0,"k":328.77500000000003},"y":{"a":0,"k":240.9800007324219}},"rx":{"a":0,"k":0},"ry":{"a":0,"k":0},"rz":{"a":0,"k":0},"s":{"a":0,"k":[100,100,100]}},"shapes":[{"ty":"gr","nm":"conveyor shape group","it":[{"ty":"sh","ks":{"a":0,"k":{"c":true,"v":[[484.026,360.788],[127.524,360.788],[127.524,213.921],[477.931,213.921],[484.026,220.016]],"i":[[0,0],[0,0],[0,0],[0,0],[0,-3.3659999999999854]],"o":[[0,0],[0,0],[0,0],[3.3660000000000423,0],[0,0]]}}},{"ty":"st","o":{"a":0,"k":0},"w":{"a":0,"k":0},"c":{"a":0,"k":[0,0,0,0]},"lc":3,"lj":1,"ml":1},{"ty":"fl","o":{"a":0,"k":100},"r":1,"c":{"a":0,"k":[0.7647058823529411,0.8352941176470589,0.9372549019607843,1]}},{"ty":"tr","o":{"a":0,"k":100},"a":{"a":0,"k":[0,0]},"s":{"a":0,"k":[100,100]},"p":{"a":0,"k":[-127.524,-213.921]},"r":{"a":0,"k":0}}]}],"op":144},{"ty":4,"nm":"conveyor","ip":0,"st":0,"ind":10,"hix":26,"ks":{"o":{"a":0,"k":100},"or":{"a":0,"k":[0,0,0]},"a":{"a":0,"k":[12.846000671386719,69.14750671386719,0]},"p":{"s":true,"x":{"a":0,"k":137.678},"y":{"a":0,"k":98.40000073242186}},"rx":{"a":0,"k":0},"ry":{"a":0,"k":0},"rz":{"a":0,"k":0},"s":{"a":0,"k":[100,100,100]}},"shapes":[{"ty":"gr","nm":"conveyor shape group","it":[{"ty":"sh","ks":{"a":0,"k":{"c":true,"v":[[119.374,75.626],[101.832,75.626],[109.982,83.776],[109.982,213.921],[127.524,213.921],[127.524,83.776]],"i":[[4.501000000000005,0],[0,0],[0,-4.500999999999991],[0,0],[0,0],[0,0]],"o":[[0,0],[4.501000000000005,0],[0,0],[0,0],[0,0],[0,-4.500999999999991]]}}},{"ty":"st","o":{"a":0,"k":0},"w":{"a":0,"k":0},"c":{"a":0,"k":[0,0,0,0]},"lc":3,"lj":1,"ml":1},{"ty":"fl","o":{"a":0,"k":100},"r":1,"c":{"a":0,"k":[0.3803921568627451,0.6352941176470588,0.9764705882352941,1]}},{"ty":"tr","o":{"a":0,"k":100},"a":{"a":0,"k":[0,0]},"s":{"a":0,"k":[100,100]},"p":{"a":0,"k":[-101.832,-75.626]},"r":{"a":0,"k":0}}]}],"op":144},{"ty":4,"nm":"conveyor","ip":0,"st":0,"ind":9,"hix":27,"ks":{"o":{"a":0,"k":100},"or":{"a":0,"k":[0,0,0]},"a":{"a":0,"k":[49.775001525878906,69.14750671386719,0]},"p":{"s":true,"x":{"a":0,"k":100.74900000000002},"y":{"a":0,"k":98.40000073242186}},"rx":{"a":0,"k":0},"ry":{"a":0,"k":0},"rz":{"a":0,"k":0},"s":{"a":0,"k":[100,100,100]}},"shapes":[{"ty":"gr","nm":"conveyor shape group","it":[{"ty":"sh","ks":{"a":0,"k":{"c":true,"v":[[119.374,75.626],[36.124,75.626],[27.974,83.776],[27.974,213.921],[127.524,213.921],[127.524,83.776]],"i":[[4.501000000000005,0],[0,0],[0,-4.500999999999991],[0,0],[0,0],[0,0]],"o":[[0,0],[-4.501000000000001,0],[0,0],[0,0],[0,0],[0,-4.500999999999991]]}}},{"ty":"st","o":{"a":0,"k":0},"w":{"a":0,"k":0},"c":{"a":0,"k":[0,0,0,0]},"lc":3,"lj":1,"ml":1},{"ty":"fl","o":{"a":0,"k":100},"r":1,"c":{"a":0,"k":[0.5019607843137255,0.7058823529411765,0.984313725490196,1]}},{"ty":"tr","o":{"a":0,"k":100},"a":{"a":0,"k":[0,0]},"s":{"a":0,"k":[100,100]},"p":{"a":0,"k":[-27.974,-75.626]},"r":{"a":0,"k":0}}]}],"op":144},{"ty":4,"nm":"conveyor","ip":0,"st":0,"ind":8,"hix":28,"ks":{"o":{"a":0,"k":100},"or":{"a":0,"k":[0,0,0]},"a":{"a":0,"k":[18.85699462890625,37.792999267578125,0]},"p":{"s":true,"x":{"a":0,"k":516.143},"y":{"a":0,"k":352.2070007324219}},"rx":{"a":0,"k":0},"ry":{"a":0,"k":0},"rz":{"a":0,"k":0},"s":{"a":0,"k":[100,100,100]}},"shapes":[{"ty":"gr","nm":"conveyor shape group","it":[{"ty":"sh","ks":{"a":0,"k":{"c":true,"v":[[496.458,360.788],[474.286,360.788],[489.828,376.33],[489.828,436.374],[505.405,436.374],[511.999,429.78],[511.999,376.33]],"i":[[8.583999999999946,0],[0,0],[0,-8.584000000000003],[0,0],[0,0],[0,3.6420000000000528],[0,0]],"o":[[0,0],[8.584000000000003,0],[0,0],[0,0],[3.6420000000000528,0],[0,0],[0.0009999999999763531,-8.58299999999997]]}}},{"ty":"st","o":{"a":0,"k":0},"w":{"a":0,"k":0},"c":{"a":0,"k":[0,0,0,0]},"lc":3,"lj":1,"ml":1},{"ty":"fl","o":{"a":0,"k":100},"r":1,"c":{"a":0,"k":[0.16862745098039217,0.30196078431372547,0.4,1]}},{"ty":"tr","o":{"a":0,"k":100},"a":{"a":0,"k":[0,0]},"s":{"a":0,"k":[100,100]},"p":{"a":0,"k":[-474.286,-360.788]},"r":{"a":0,"k":0}}]}],"op":144},{"ty":4,"nm":"conveyor","ip":0,"st":0,"ind":7,"hix":29,"ks":{"o":{"a":0,"k":100},"or":{"a":0,"k":[0,0,0]},"a":{"a":0,"k":[256,37.792999267578125,0]},"p":{"s":true,"x":{"a":0,"k":279},"y":{"a":0,"k":352.2070007324219}},"rx":{"a":0,"k":0},"ry":{"a":0,"k":0},"rz":{"a":0,"k":0},"s":{"a":0,"k":[100,100,100]}},"shapes":[{"ty":"gr","nm":"conveyor shape group","it":[{"ty":"sh","ks":{"a":0,"k":{"c":true,"v":[[505.406,436.374],[6.594,436.374],[0,429.78],[0,376.33],[15.542,360.788],[496.458,360.788],[512,376.33],[512,429.779]],"i":[[3.641999999999996,0],[0,0],[0,3.6420000000000528],[0,0],[-8.584,0],[0,0],[0,-8.584000000000003],[0,0]],"o":[[0,0],[-3.6420000000000003,0],[0,0],[0,-8.584000000000003],[0,0],[8.583999999999946,0],[0,0],[0,3.643000000000029]]}}},{"ty":"st","o":{"a":0,"k":0},"w":{"a":0,"k":0},"c":{"a":0,"k":[0,0,0,0]},"lc":3,"lj":1,"ml":1},{"ty":"fl","o":{"a":0,"k":100},"r":1,"c":{"a":0,"k":[0.21176470588235294,0.3686274509803922,0.49019607843137253,1]}},{"ty":"tr","o":{"a":0,"k":100},"a":{"a":0,"k":[0,0]},"s":{"a":0,"k":[100,100]},"p":{"a":0,"k":[0,-360.788]},"r":{"a":0,"k":0}}]}],"op":144},{"ty":4,"nm":"conveyor","ip":0,"st":0,"ind":6,"hix":30,"ks":{"o":{"a":0,"k":100},"or":{"a":0,"k":[0,0,0]},"a":{"a":0,"k":[24.887496948242188,48.066497802734375,0]},"p":{"s":true,"x":{"a":0,"k":142.74800000000002},"y":{"a":0,"k":93.4270007324219}},"rx":{"a":0,"k":0},"ry":{"a":0,"k":0},"rz":{"a":0,"k":0},"s":{"a":0,"k":[100,100,100]}},"shapes":[{"ty":"gr","nm":"conveyor shape group","it":[{"ty":"sh","ks":{"a":0,"k":{"c":true,"v":[[95.86,92.735],[143.635,91.735],[144.635,187.868],[94.86,187.868]],"i":[[0,0],[0,0],[0,0],[0,0]],"o":[[0,0],[0,0],[0,0],[0,0]]}}},{"ty":"st","o":{"a":0,"k":0},"w":{"a":0,"k":0},"c":{"a":0,"k":[0,0,0,0]},"lc":3,"lj":1,"ml":1},{"ty":"fl","o":{"a":0,"k":100},"r":1,"c":{"a":0,"k":[0.8941176470588236,0.5843137254901961,0.25882352941176473,1]}},{"ty":"tr","o":{"a":0,"k":100},"a":{"a":0,"k":[0,0]},"s":{"a":0,"k":[100,100]},"p":{"a":0,"k":[-94.86,-91.735]},"r":{"a":0,"k":0}}]}],"op":144},{"ty":4,"nm":"conveyor","ip":0,"st":0,"ind":5,"hix":31,"ks":{"o":{"a":0,"k":100},"or":{"a":0,"k":[0,0,0]},"a":{"a":0,"k":[8.986499786376953,83.7354965209961,0]},"p":{"s":true,"x":{"a":0,"k":141.538},"y":{"a":0,"k":230.67800073242188}},"rx":{"a":0,"k":0},"ry":{"a":0,"k":0},"rz":{"a":0,"k":0},"s":{"a":0,"k":[100,100,100]}},"shapes":[{"ty":"gr","nm":"conveyor shape group","it":[{"ty":"sh","ks":{"a":0,"k":{"c":true,"v":[[109.551,193.317],[109.551,360.788],[127.524,360.788],[127.524,213.921]],"i":[[0,0],[0,0],[0,0],[0,0]],"o":[[0,0],[0,0],[0,0],[0,0]]}}},{"ty":"st","o":{"a":0,"k":0},"w":{"a":0,"k":0},"c":{"a":0,"k":[0,0,0,0]},"lc":3,"lj":1,"ml":1},{"ty":"fl","o":{"a":0,"k":100},"r":1,"c":{"a":0,"k":[0.8470588235294118,0.8862745098039215,0.9450980392156862,1]}},{"ty":"tr","o":{"a":0,"k":100},"a":{"a":0,"k":[0,0]},"s":{"a":0,"k":[100,100]},"p":{"a":0,"k":[-109.551,-193.317]},"r":{"a":0,"k":0}}]}],"op":144},{"ty":4,"nm":"conveyor","ip":0,"st":0,"ind":4,"hix":32,"ks":{"o":{"a":0,"k":100},"or":{"a":0,"k":[0,0,0]},"a":{"a":0,"k":[49.775001525878906,83.73500061035156,0]},"p":{"s":true,"x":{"a":0,"k":100.74900000000002},"y":{"a":0,"k":230.67900073242185}},"rx":{"a":0,"k":0},"ry":{"a":0,"k":0},"rz":{"a":0,"k":0},"s":{"a":0,"k":[100,100,100]}},"shapes":[{"ty":"gr","nm":"conveyor shape group","it":[{"ty":"sh","ks":{"a":0,"k":{"c":true,"v":[[127.524,360.788],[27.974,360.788],[27.974,213.921],[42.608,193.318],[110.585,193.318],[127.524,213.921]],"i":[[0,0],[0,0],[0,0],[0,0],[0,0],[0,0]],"o":[[0,0],[0,0],[0,0],[0,0],[0,0],[0,0]]}}},{"ty":"st","o":{"a":0,"k":0},"w":{"a":0,"k":0},"c":{"a":0,"k":[0,0,0,0]},"lc":3,"lj":1,"ml":1},{"ty":"fl","o":{"a":0,"k":100},"r":1,"c":{"a":0,"k":[0.9058823529411765,0.9254901960784314,0.9647058823529412,1]}},{"ty":"tr","o":{"a":0,"k":100},"a":{"a":0,"k":[0,0]},"s":{"a":0,"k":[100,100]},"p":{"a":0,"k":[-27.974,-193.318]},"r":{"a":0,"k":0}}]}],"op":144},{"ty":4,"nm":"duck","ip":0,"st":0,"ind":3,"hix":5,"ks":{"o":{"a":1,"k":[{"t":0,"s":[100],"e":[100],"i":{"x":[1],"y":[1]},"o":{"x":[0],"y":[0]}},{"t":105,"s":[100],"e":[0],"i":{"x":[0.515],"y":[0.955]},"o":{"x":[0.455],"y":[0.03]}},{"t":144}]},"or":{"a":0,"k":[0,0,0]},"a":{"a":0,"k":[255.99949645996094,218.75599670410156,0]},"p":{"s":true,"x":{"a":1,"k":[{"t":0,"s":[107.9749755859375],"e":[448.65810540771486],"i":{"x":[0.47],"y":[1.005]},"o":{"x":[0.455],"y":[0.03]}},{"t":105}]},"y":{"a":1,"k":[{"t":0,"s":[99.86737237548829],"e":[99.86737237548829],"i":{"x":[0.515],"y":[0.955]},"o":{"x":[0.455],"y":[0.03]}},{"t":105}]}},"rx":{"a":0,"k":0},"ry":{"a":0,"k":0},"rz":{"a":0,"k":0},"s":{"a":0,"k":[18.8,18.8]}},"shapes":[{"ty":"gr","nm":"duck shape group","it":[{"ty":"sh","ks":{"a":0,"k":{"c":true,"v":[[280.946,338.976],[210.268,338.976],[210.268,399.322],[280.946,399.322],[301.732,378.536],[301.732,359.761]],"i":[[11.479999999999961,0],[0,0],[0,0],[0,0],[0,11.480000000000018],[0,0]],"o":[[0,0],[0,0],[0,0],[11.479999999999961,0],[0,0],[0,-11.479000000000042]]}}},{"ty":"st","o":{"a":0,"k":0},"w":{"a":0,"k":0},"c":{"a":0,"k":[0,0,0,0]},"lc":3,"lj":1,"ml":1},{"ty":"fl","o":{"a":0,"k":100},"r":1,"c":{"a":0,"k":[1,0.6235294117647059,0,1]}},{"ty":"tr","o":{"a":0,"k":100},"a":{"a":0,"k":[0,0]},"s":{"a":0,"k":[100,100]},"p":{"a":0,"k":[0,-37.244]},"r":{"a":0,"k":0}}]},{"ty":"gr","nm":"duck shape group","it":[{"ty":"rc","s":{"a":0,"k":[30.173,45.26]},"r":{"a":0,"k":0},"p":{"a":0,"k":[331.9055,165.48]}},{"ty":"st","o":{"a":0,"k":0},"w":{"a":0,"k":0},"c":{"a":0,"k":[0,0,0,0]},"lc":3,"lj":1,"ml":1},{"ty":"fl","o":{"a":0,"k":100},"r":1,"c":{"a":0,"k":[1,0.6235294117647059,0,1]}},{"ty":"tr","o":{"a":0,"k":100},"a":{"a":0,"k":[0,0]},"s":{"a":0,"k":[100,100]},"p":{"a":0,"k":[0,-37.244]},"r":{"a":0,"k":0}}]},{"ty":"gr","nm":"duck shape group","it":[{"ty":"sh","ks":{"a":0,"k":{"c":true,"v":[[437.511,180.566],[294.189,37.244],[210.268,64.458],[210.268,474.755],[294.19,474.755],[407.338,361.606],[383.732,292.469]],"i":[[0,42.52699999999999],[79.02799999999996,0],[23.604000000000013,-17.11],[0,0],[0,0],[0,62.39100000000002],[15.157999999999959,19.67700000000002]],"o":[[0,-79.028],[-31.31800000000004,0],[0,0],[0,0],[62.389999999999986,0],[0,-25.079000000000008],[34.928999999999974,-28.022999999999968]]}}},{"ty":"st","o":{"a":0,"k":0},"w":{"a":0,"k":0},"c":{"a":0,"k":[0,0,0,0]},"lc":3,"lj":1,"ml":1},{"ty":"fl","o":{"a":0,"k":100},"r":1,"c":{"a":0,"k":[1,0.8313725490196079,0,1]}},{"ty":"tr","o":{"a":0,"k":100},"a":{"a":0,"k":[0,0]},"s":{"a":0,"k":[100,100]},"p":{"a":0,"k":[0,-37.244]},"r":{"a":0,"k":0}}]},{"ty":"gr","nm":"duck shape group","it":[{"ty":"sh","ks":{"a":0,"k":{"c":true,"v":[[379.077,293.716],[421.479,293.716],[511.999,203.196],[434.559,203.196]],"i":[[0,0],[0,0],[0,49.992999999999995],[0,0]],"o":[[0,0],[49.99200000000002,0],[0,0],[0,0]]}}},{"ty":"st","o":{"a":0,"k":0},"w":{"a":0,"k":0},"c":{"a":0,"k":[0,0,0,0]},"lc":3,"lj":1,"ml":1},{"ty":"fl","o":{"a":0,"k":100},"r":1,"c":{"a":0,"k":[1,0.4117647058823529,0.5019607843137255,1]}},{"ty":"tr","o":{"a":0,"k":100},"a":{"a":0,"k":[0,0]},"s":{"a":0,"k":[100,100]},"p":{"a":0,"k":[0,-37.244]},"r":{"a":0,"k":0}}]},{"ty":"gr","nm":"duck shape group","it":[{"ty":"sh","ks":{"a":0,"k":{"c":true,"v":[[135.779,338.976],[114.993,359.762],[114.993,378.537],[135.779,399.323],[210.268,399.323],[225.355,369.15],[210.268,338.977]],"i":[[8.837000000000018,0],[0,-11.480999999999995],[0,0],[-11.479,0],[0,0],[0,0],[0,0]],"o":[[-11.477999999999994,0],[0,0],[0,11.480000000000018],[0,0],[0,0],[0,0],[-8.385999999999996,-0.0009999999999763531]]}}},{"ty":"st","o":{"a":0,"k":0},"w":{"a":0,"k":0},"c":{"a":0,"k":[0,0,0,0]},"lc":3,"lj":1,"ml":1},{"ty":"fl","o":{"a":0,"k":100},"r":1,"c":{"a":0,"k":[1,0.8313725490196079,0,1]}},{"ty":"tr","o":{"a":0,"k":100},"a":{"a":0,"k":[0,0]},"s":{"a":0,"k":[100,100]},"p":{"a":0,"k":[0,-37.244]},"r":{"a":0,"k":0}}]},{"ty":"gr","nm":"duck shape group","it":[{"ty":"sh","ks":{"a":0,"k":{"c":true,"v":[[171.488,254.627],[103.894,262.877],[0,242.108],[0,344.509],[130.248,474.756],[210.268,474.756],[225.355,269.608],[210.268,64.459]],"i":[[-38.72900000000001,-64.18],[21.081999999999994,-0.5190000000000055],[12.69,3.6129999999999995],[0,0],[-71.821,0],[0,0],[0,0],[0,0]],"o":[[-20.417,4.349999999999966],[-55.43600000000001,1.343999999999994],[0,0],[0,71.81599999999997],[0,0],[0,0],[0,0],[-60.167,43.60799999999999]]}}},{"ty":"st","o":{"a":0,"k":0},"w":{"a":0,"k":0},"c":{"a":0,"k":[0,0,0,0]},"lc":3,"lj":1,"ml":1},{"ty":"fl","o":{"a":0,"k":100},"r":1,"c":{"a":0,"k":[1,0.8941176470588236,0.4392156862745098,1]}},{"ty":"tr","o":{"a":0,"k":100},"a":{"a":0,"k":[0,0]},"s":{"a":0,"k":[100,100]},"p":{"a":0,"k":[0,-37.244]},"r":{"a":0,"k":0}}]},{"ty":"gr","nm":"duck shape group","it":[{"ty":"rc","s":{"a":0,"k":[512,512]},"r":{"a":0,"k":0},"p":{"a":0,"k":[256,256]}},{"ty":"st","o":{"a":0,"k":0},"w":{"a":0,"k":0},"c":{"a":0,"k":[0,0,0,0]},"lc":3,"lj":1,"ml":1},{"ty":"fl","o":{"a":0,"k":0},"c":{"a":0,"k":[0,0,0,0]},"r":1},{"ty":"tr","o":{"a":0,"k":100},"a":{"a":0,"k":[0,0]},"s":{"a":0,"k":[100,100]},"p":{"a":0,"k":[0,0]},"r":{"a":0,"k":0}}]}],"op":144},{"ty":4,"nm":"duck","ip":0,"st":0,"ind":2,"hix":2,"ks":{"o":{"a":1,"k":[{"t":0,"s":[100],"e":[100],"i":{"x":[1],"y":[1]},"o":{"x":[0],"y":[0]}},{"t":105,"s":[100],"e":[0],"i":{"x":[0.515],"y":[0.955]},"o":{"x":[0.455],"y":[0.03]}},{"t":144}]},"or":{"a":0,"k":[0,0,0]},"a":{"a":0,"k":[255.99949645996094,218.75599670410156,0]},"p":{"s":true,"x":{"a":1,"k":[{"t":0,"s":[107.4749755859375],"e":[107.47497558593749],"i":{"x":[0.47],"y":[1.005]},"o":{"x":[0.455],"y":[0.03]}},{"t":72,"s":[107.47497558593749],"e":[225.16164544677736],"i":{"x":[0.515],"y":[0.955]},"o":{"x":[0.455],"y":[0.03]}},{"t":105}]},"y":{"a":1,"k":[{"t":0,"s":[99.86737237548829],"e":[99.36737060546875],"i":{"x":[0.515],"y":[0.955]},"o":{"x":[0.455],"y":[0.03]}},{"t":71,"s":[99.36737060546875],"e":[99.36737060546875],"i":{"x":[0.515],"y":[0.955]},"o":{"x":[0.455],"y":[0.03]}},{"t":105}]}},"rx":{"a":0,"k":0},"ry":{"a":0,"k":0},"rz":{"a":0,"k":0},"s":{"a":0,"k":[18.8,18.8]}},"shapes":[{"ty":"gr","nm":"duck shape group","it":[{"ty":"sh","ks":{"a":0,"k":{"c":true,"v":[[280.946,338.976],[210.268,338.976],[210.268,399.322],[280.946,399.322],[301.732,378.536],[301.732,359.761]],"i":[[11.479999999999961,0],[0,0],[0,0],[0,0],[0,11.480000000000018],[0,0]],"o":[[0,0],[0,0],[0,0],[11.479999999999961,0],[0,0],[0,-11.479000000000042]]}}},{"ty":"st","o":{"a":0,"k":0},"w":{"a":0,"k":0},"c":{"a":0,"k":[0,0,0,0]},"lc":3,"lj":1,"ml":1},{"ty":"fl","o":{"a":0,"k":100},"r":1,"c":{"a":0,"k":[1,0.6235294117647059,0,1]}},{"ty":"tr","o":{"a":0,"k":100},"a":{"a":0,"k":[0,0]},"s":{"a":0,"k":[100,100]},"p":{"a":0,"k":[0,-37.244]},"r":{"a":0,"k":0}}]},{"ty":"gr","nm":"duck shape group","it":[{"ty":"rc","s":{"a":0,"k":[30.173,45.26]},"r":{"a":0,"k":0},"p":{"a":0,"k":[331.9055,165.48]}},{"ty":"st","o":{"a":0,"k":0},"w":{"a":0,"k":0},"c":{"a":0,"k":[0,0,0,0]},"lc":3,"lj":1,"ml":1},{"ty":"fl","o":{"a":0,"k":100},"r":1,"c":{"a":0,"k":[1,0.6235294117647059,0,1]}},{"ty":"tr","o":{"a":0,"k":100},"a":{"a":0,"k":[0,0]},"s":{"a":0,"k":[100,100]},"p":{"a":0,"k":[0,-37.244]},"r":{"a":0,"k":0}}]},{"ty":"gr","nm":"duck shape group","it":[{"ty":"sh","ks":{"a":0,"k":{"c":true,"v":[[437.511,180.566],[294.189,37.244],[210.268,64.458],[210.268,474.755],[294.19,474.755],[407.338,361.606],[383.732,292.469]],"i":[[0,42.52699999999999],[79.02799999999996,0],[23.604000000000013,-17.11],[0,0],[0,0],[0,62.39100000000002],[15.157999999999959,19.67700000000002]],"o":[[0,-79.028],[-31.31800000000004,0],[0,0],[0,0],[62.389999999999986,0],[0,-25.079000000000008],[34.928999999999974,-28.022999999999968]]}}},{"ty":"st","o":{"a":0,"k":0},"w":{"a":0,"k":0},"c":{"a":0,"k":[0,0,0,0]},"lc":3,"lj":1,"ml":1},{"ty":"fl","o":{"a":0,"k":100},"r":1,"c":{"a":0,"k":[1,0.8313725490196079,0,1]}},{"ty":"tr","o":{"a":0,"k":100},"a":{"a":0,"k":[0,0]},"s":{"a":0,"k":[100,100]},"p":{"a":0,"k":[0,-37.244]},"r":{"a":0,"k":0}}]},{"ty":"gr","nm":"duck shape group","it":[{"ty":"sh","ks":{"a":0,"k":{"c":true,"v":[[379.077,293.716],[421.479,293.716],[511.999,203.196],[434.559,203.196]],"i":[[0,0],[0,0],[0,49.992999999999995],[0,0]],"o":[[0,0],[49.99200000000002,0],[0,0],[0,0]]}}},{"ty":"st","o":{"a":0,"k":0},"w":{"a":0,"k":0},"c":{"a":0,"k":[0,0,0,0]},"lc":3,"lj":1,"ml":1},{"ty":"fl","o":{"a":0,"k":100},"r":1,"c":{"a":0,"k":[1,0.4117647058823529,0.5019607843137255,1]}},{"ty":"tr","o":{"a":0,"k":100},"a":{"a":0,"k":[0,0]},"s":{"a":0,"k":[100,100]},"p":{"a":0,"k":[0,-37.244]},"r":{"a":0,"k":0}}]},{"ty":"gr","nm":"duck shape group","it":[{"ty":"sh","ks":{"a":0,"k":{"c":true,"v":[[135.779,338.976],[114.993,359.762],[114.993,378.537],[135.779,399.323],[210.268,399.323],[225.355,369.15],[210.268,338.977]],"i":[[8.837000000000018,0],[0,-11.480999999999995],[0,0],[-11.479,0],[0,0],[0,0],[0,0]],"o":[[-11.477999999999994,0],[0,0],[0,11.480000000000018],[0,0],[0,0],[0,0],[-8.385999999999996,-0.0009999999999763531]]}}},{"ty":"st","o":{"a":0,"k":0},"w":{"a":0,"k":0},"c":{"a":0,"k":[0,0,0,0]},"lc":3,"lj":1,"ml":1},{"ty":"fl","o":{"a":0,"k":100},"r":1,"c":{"a":0,"k":[1,0.8313725490196079,0,1]}},{"ty":"tr","o":{"a":0,"k":100},"a":{"a":0,"k":[0,0]},"s":{"a":0,"k":[100,100]},"p":{"a":0,"k":[0,-37.244]},"r":{"a":0,"k":0}}]},{"ty":"gr","nm":"duck shape group","it":[{"ty":"sh","ks":{"a":0,"k":{"c":true,"v":[[171.488,254.627],[103.894,262.877],[0,242.108],[0,344.509],[130.248,474.756],[210.268,474.756],[225.355,269.608],[210.268,64.459]],"i":[[-38.72900000000001,-64.18],[21.081999999999994,-0.5190000000000055],[12.69,3.6129999999999995],[0,0],[-71.821,0],[0,0],[0,0],[0,0]],"o":[[-20.417,4.349999999999966],[-55.43600000000001,1.343999999999994],[0,0],[0,71.81599999999997],[0,0],[0,0],[0,0],[-60.167,43.60799999999999]]}}},{"ty":"st","o":{"a":0,"k":0},"w":{"a":0,"k":0},"c":{"a":0,"k":[0,0,0,0]},"lc":3,"lj":1,"ml":1},{"ty":"fl","o":{"a":0,"k":100},"r":1,"c":{"a":0,"k":[1,0.8941176470588236,0.4392156862745098,1]}},{"ty":"tr","o":{"a":0,"k":100},"a":{"a":0,"k":[0,0]},"s":{"a":0,"k":[100,100]},"p":{"a":0,"k":[0,-37.244]},"r":{"a":0,"k":0}}]},{"ty":"gr","nm":"duck shape group","it":[{"ty":"rc","s":{"a":0,"k":[512,512]},"r":{"a":0,"k":0},"p":{"a":0,"k":[256,256]}},{"ty":"st","o":{"a":0,"k":0},"w":{"a":0,"k":0},"c":{"a":0,"k":[0,0,0,0]},"lc":3,"lj":1,"ml":1},{"ty":"fl","o":{"a":0,"k":0},"c":{"a":0,"k":[0,0,0,0]},"r":1},{"ty":"tr","o":{"a":0,"k":100},"a":{"a":0,"k":[0,0]},"s":{"a":0,"k":[100,100]},"p":{"a":0,"k":[0,0]},"r":{"a":0,"k":0}}]}],"op":144},{"ty":4,"nm":"duck","ip":0,"st":0,"ind":1,"hix":3,"ks":{"o":{"a":1,"k":[{"t":0,"s":[100],"e":[100],"i":{"x":[1],"y":[1]},"o":{"x":[0],"y":[0]}},{"t":105,"s":[100],"e":[0],"i":{"x":[0.515],"y":[0.955]},"o":{"x":[0.455],"y":[0.03]}},{"t":144}]},"or":{"a":0,"k":[0,0,0]},"a":{"a":0,"k":[255.99949645996094,218.75599670410156,0]},"p":{"s":true,"x":{"a":1,"k":[{"t":0,"s":[107.4749755859375],"e":[107.47497558593749],"i":{"x":[0.47],"y":[1.005]},"o":{"x":[0.455],"y":[0.03]}},{"t":36,"s":[107.47497558593749],"e":[335.74111322021486],"i":{"x":[0.515],"y":[0.955]},"o":{"x":[0.455],"y":[0.03]}},{"t":105}]},"y":{"a":1,"k":[{"t":0,"s":[99.86737237548829],"e":[99.36737060546875],"i":{"x":[0.515],"y":[0.955]},"o":{"x":[0.455],"y":[0.03]}},{"t":36,"s":[99.36737060546875],"e":[99.86737237548829],"i":{"x":[0.515],"y":[0.955]},"o":{"x":[0.455],"y":[0.03]}},{"t":105}]}},"rx":{"a":0,"k":0},"ry":{"a":0,"k":0},"rz":{"a":0,"k":0},"s":{"a":0,"k":[18.8,18.8]}},"shapes":[{"ty":"gr","nm":"duck shape group","it":[{"ty":"sh","ks":{"a":0,"k":{"c":true,"v":[[280.946,338.976],[210.268,338.976],[210.268,399.322],[280.946,399.322],[301.732,378.536],[301.732,359.761]],"i":[[11.479999999999961,0],[0,0],[0,0],[0,0],[0,11.480000000000018],[0,0]],"o":[[0,0],[0,0],[0,0],[11.479999999999961,0],[0,0],[0,-11.479000000000042]]}}},{"ty":"st","o":{"a":0,"k":0},"w":{"a":0,"k":0},"c":{"a":0,"k":[0,0,0,0]},"lc":3,"lj":1,"ml":1},{"ty":"fl","o":{"a":0,"k":100},"r":1,"c":{"a":0,"k":[1,0.6235294117647059,0,1]}},{"ty":"tr","o":{"a":0,"k":100},"a":{"a":0,"k":[0,0]},"s":{"a":0,"k":[100,100]},"p":{"a":0,"k":[0,-37.244]},"r":{"a":0,"k":0}}]},{"ty":"gr","nm":"duck shape group","it":[{"ty":"rc","s":{"a":0,"k":[30.173,45.26]},"r":{"a":0,"k":0},"p":{"a":0,"k":[331.9055,165.48]}},{"ty":"st","o":{"a":0,"k":0},"w":{"a":0,"k":0},"c":{"a":0,"k":[0,0,0,0]},"lc":3,"lj":1,"ml":1},{"ty":"fl","o":{"a":0,"k":100},"r":1,"c":{"a":0,"k":[1,0.6235294117647059,0,1]}},{"ty":"tr","o":{"a":0,"k":100},"a":{"a":0,"k":[0,0]},"s":{"a":0,"k":[100,100]},"p":{"a":0,"k":[0,-37.244]},"r":{"a":0,"k":0}}]},{"ty":"gr","nm":"duck shape group","it":[{"ty":"sh","ks":{"a":0,"k":{"c":true,"v":[[437.511,180.566],[294.189,37.244],[210.268,64.458],[210.268,474.755],[294.19,474.755],[407.338,361.606],[383.732,292.469]],"i":[[0,42.52699999999999],[79.02799999999996,0],[23.604000000000013,-17.11],[0,0],[0,0],[0,62.39100000000002],[15.157999999999959,19.67700000000002]],"o":[[0,-79.028],[-31.31800000000004,0],[0,0],[0,0],[62.389999999999986,0],[0,-25.079000000000008],[34.928999999999974,-28.022999999999968]]}}},{"ty":"st","o":{"a":0,"k":0},"w":{"a":0,"k":0},"c":{"a":0,"k":[0,0,0,0]},"lc":3,"lj":1,"ml":1},{"ty":"fl","o":{"a":0,"k":100},"r":1,"c":{"a":0,"k":[1,0.8313725490196079,0,1]}},{"ty":"tr","o":{"a":0,"k":100},"a":{"a":0,"k":[0,0]},"s":{"a":0,"k":[100,100]},"p":{"a":0,"k":[0,-37.244]},"r":{"a":0,"k":0}}]},{"ty":"gr","nm":"duck shape group","it":[{"ty":"sh","ks":{"a":0,"k":{"c":true,"v":[[379.077,293.716],[421.479,293.716],[511.999,203.196],[434.559,203.196]],"i":[[0,0],[0,0],[0,49.992999999999995],[0,0]],"o":[[0,0],[49.99200000000002,0],[0,0],[0,0]]}}},{"ty":"st","o":{"a":0,"k":0},"w":{"a":0,"k":0},"c":{"a":0,"k":[0,0,0,0]},"lc":3,"lj":1,"ml":1},{"ty":"fl","o":{"a":0,"k":100},"r":1,"c":{"a":0,"k":[1,0.4117647058823529,0.5019607843137255,1]}},{"ty":"tr","o":{"a":0,"k":100},"a":{"a":0,"k":[0,0]},"s":{"a":0,"k":[100,100]},"p":{"a":0,"k":[0,-37.244]},"r":{"a":0,"k":0}}]},{"ty":"gr","nm":"duck shape group","it":[{"ty":"sh","ks":{"a":0,"k":{"c":true,"v":[[135.779,338.976],[114.993,359.762],[114.993,378.537],[135.779,399.323],[210.268,399.323],[225.355,369.15],[210.268,338.977]],"i":[[8.837000000000018,0],[0,-11.480999999999995],[0,0],[-11.479,0],[0,0],[0,0],[0,0]],"o":[[-11.477999999999994,0],[0,0],[0,11.480000000000018],[0,0],[0,0],[0,0],[-8.385999999999996,-0.0009999999999763531]]}}},{"ty":"st","o":{"a":0,"k":0},"w":{"a":0,"k":0},"c":{"a":0,"k":[0,0,0,0]},"lc":3,"lj":1,"ml":1},{"ty":"fl","o":{"a":0,"k":100},"r":1,"c":{"a":0,"k":[1,0.8313725490196079,0,1]}},{"ty":"tr","o":{"a":0,"k":100},"a":{"a":0,"k":[0,0]},"s":{"a":0,"k":[100,100]},"p":{"a":0,"k":[0,-37.244]},"r":{"a":0,"k":0}}]},{"ty":"gr","nm":"duck shape group","it":[{"ty":"sh","ks":{"a":0,"k":{"c":true,"v":[[171.488,254.627],[103.894,262.877],[0,242.108],[0,344.509],[130.248,474.756],[210.268,474.756],[225.355,269.608],[210.268,64.459]],"i":[[-38.72900000000001,-64.18],[21.081999999999994,-0.5190000000000055],[12.69,3.6129999999999995],[0,0],[-71.821,0],[0,0],[0,0],[0,0]],"o":[[-20.417,4.349999999999966],[-55.43600000000001,1.343999999999994],[0,0],[0,71.81599999999997],[0,0],[0,0],[0,0],[-60.167,43.60799999999999]]}}},{"ty":"st","o":{"a":0,"k":0},"w":{"a":0,"k":0},"c":{"a":0,"k":[0,0,0,0]},"lc":3,"lj":1,"ml":1},{"ty":"fl","o":{"a":0,"k":100},"r":1,"c":{"a":0,"k":[1,0.8941176470588236,0.4392156862745098,1]}},{"ty":"tr","o":{"a":0,"k":100},"a":{"a":0,"k":[0,0]},"s":{"a":0,"k":[100,100]},"p":{"a":0,"k":[0,-37.244]},"r":{"a":0,"k":0}}]},{"ty":"gr","nm":"duck shape group","it":[{"ty":"rc","s":{"a":0,"k":[512,512]},"r":{"a":0,"k":0},"p":{"a":0,"k":[256,256]}},{"ty":"st","o":{"a":0,"k":0},"w":{"a":0,"k":0},"c":{"a":0,"k":[0,0,0,0]},"lc":3,"lj":1,"ml":1},{"ty":"fl","o":{"a":0,"k":0},"c":{"a":0,"k":[0,0,0,0]},"r":1},{"ty":"tr","o":{"a":0,"k":100},"a":{"a":0,"k":[0,0]},"s":{"a":0,"k":[100,100]},"p":{"a":0,"k":[0,0]},"r":{"a":0,"k":0}}]}],"op":144}],"op":144,"w":558,"h":390}